poids : -0.1153042, -0.3702335, -0.4631278, 0.3079586, -0.3036738, 0.5580869, -0.3744613, 0.2690491, -0.2915815, 0.1037564, -0.1865140, 0.1841607, -0.3938610, -0.0162668, -0.1298178, -0.1469825, -0.2642099, 0.1776820, 0.4289981, 0.3944532, 0.2506765, -0.1920798, -0.3386874, 0.2797739, -0.1076283, 0.0415818, 0.0704763, 0.0353483, -0.0376573, 0.3276784, 0.3164051, 0.1104357, -0.3570485, 0.3551538, -0.1794773, 0.1437027, 0.3772076, -0.2677147, -0.0356331, 0.4122083, -0.2361962, 0.1228428, -0.0628799, -0.3070426, 0.4317475, 0.1504621, -0.2364411, -0.2173446, -0.1598841, 0.1915872, -0.2153156, 0.0144012, 0.4122087, -0.0715576, 0.3638747, 0.1720695, -0.1058260, 0.4238382, 0.4040076, 0.1493678, -0.5052317, 0.1708290, 0.1341687, -0.2466174, -0.3214418, -0.1584348, 0.2887228, -0.0491994, -0.0904717, 0.3122545, 0.1892558, 0.1713033, -0.2933527, -0.2398901, -0.4673682, -0.2544340, -0.0017725, -0.4553011, 0.2298254, 0.0233324, 0.0630484, -0.2895590, -0.2729730, -0.3120145, -0.4031495, -0.2977313, 0.0341281, 0.0531268, -0.2495646, 0.1275045, -0.2095680, -0.1285655, -0.4760340, -0.1913254, -0.1399349, 0.0984432, -0.2431452, -0.2891863, -0.3481925, 0.5259837, 0.2629675, 0.1739294, 0.3871682, 0.0734421, -0.0345755, 0.1795321, -0.3852116, -0.3076949, 0.2336522, 0.5360402, 0.2995489, 0.3113108, 0.2731484, 0.3151810, 0.0640338, 0.0750351, 0.0080899, -0.4490196, 0.2794620, -0.5078157, -0.3258389, 0.5157548, 0.1542306, -0.1098547, -0.3097029, -0.3048003, 0.3170566, 0.2788782, 0.1527294, 0.0667310, -0.1328513, 0.0323451, 0.2573615, -0.2032023, -0.2547098, 0.0417605, -0.1706927, 0.0679147, -0.2124106, 0.0309862, -0.0950120, 0.2798322, 0.1926379, -0.3788081, -0.1901149, 0.1548120, -0.3512437, -0.0587460, -0.3538367, -0.1365076, 0.0492940, -0.3514357, 0.1334711, 0.3166736, -0.4181365, 0.0948486, -0.2820629, -0.2757452, -0.4956334, -0.1115507, 0.1977324, -0.1748956, -0.1244229, -0.0487238, 0.1327969, 0.4400711, 0.1867219, 0.4415222, 0.3654944, 0.2974136, -0.3457874, 0.3619126, 0.2038177, 0.2639357, 0.1867256, -0.3321382, 0.2625452, 0.0793934, 0.1928261, -0.0776877, -0.3306007, 0.1427640, -0.2276663, -0.3471528, -0.4036342, 0.0710111, 0.4252533, -0.3051957, -0.3044192, -0.0100291, -0.1690860, -0.1418220, -0.1226449, 0.0887636, -0.4468647, 0.2607910, -0.3074911, 0.0781555, 0.0766283, -0.1529332, -0.4348704, -0.4485652, 0.2698427, 0.4858231, 0.1020244, 0.3167270, -0.5179432, 0.3176057, 0.1366054, 0.3611523, 0.2059351, 0.0912172, -0.2521485, -0.0811686, 0.4155180, -0.0494209, -0.2586362, 0.3580610, 0.0954901, 0.2621145, 0.2587890, -0.4403042, -0.4036195, -0.4095248, -0.1060154, -0.1072480, 0.3465853, -0.2147021, 0.1761310, 0.1332424, 0.4331828, -0.0507155, 0.3993501, 0.2041978, 0.2700494, -0.1429340, -0.4741488, 0.0810789, -0.1964479, -0.3668207, 0.3739032, 0.1158195, 0.2232306, 0.1005024, 0.0915037, -0.3244921, 0.1622064, 0.2090438, 0.0490853, -0.0003577, 0.3795231, -0.0930601, -0.1427089, 0.3338108, 0.3108706, 0.1950043, -0.0395959, -0.4231249, 0.1790768, 0.3932487, 0.2465880, 0.0793354, -0.2498876, 0.0255814, 0.3495207, 0.0054051, -0.3923696, 0.3787093, -0.4215218, -0.2487410, 0.1217893, -0.0800227, -0.3457566, 0.0015079, 0.4479604, 0.2488038, 0.1422173, 0.2965413, 0.0322743, -0.4919377, 0.0975906, 0.0554296, 0.1251716, -0.1806907, -0.2179683, -0.6026246, -0.3218704, -0.1449202, -0.0018439, 0.0791767, 0.2315616, -0.1531629, 0.1873752, -0.0122870, -0.0722486, -0.2642833, -0.0882278, -0.3426861, -0.2154727, 0.2644930, 0.4139695, -0.2098100, 0.5012149, -0.5255516, -0.2555333, -0.3117447, -0.1719859, 0.4139421, -0.5325667, 0.0818425, 0.0734799, 0.4012835, -0.3026856, -0.4586589, 0.3818320, -0.0233245, -0.1494112, -0.4074649, 0.4415599, -0.1994571, 0.1566886, 0.1189086, 0.3517207, 0.2185246, -0.1825779, 0.2465190, 0.2749926, 0.0047520, -0.4102982, 0.4351001, -0.4568456, 0.0664954, 0.3045810, -0.0384337, 0.0708640, -0.4714075, -0.3445793, 0.4117125, 0.3909994, 0.0540885, -0.2664624, 0.2297995, -0.3170851, -0.0465504, 0.1093528, -0.1650178, -0.1261096, -0.3628707, 0.1948315, 0.0174733, -0.3112077, 0.3213344, -0.5207449, 0.0473607, 0.0213185, -0.2315123, -0.2212556, 0.2031363, 0.4706450, 0.0110773, 0.3470475, 0.0562400, -0.4523120, -0.0295335, -0.3419998, -0.0126727, 0.1434179, 0.2328029, -0.4250202, -0.4837435, 0.1399423, 0.0898502, -0.2204292, -0.0979237, -0.1563216, -0.4140336, -0.1005748, 0.4410927, 0.0192436, 0.1042471, -0.4857216, 0.3456132, 0.0709804, 0.3505049, 0.2667320, 0.0843602, 0.1557626, 0.3162067, -0.2867515, 0.1821417, -0.0657000, -0.3056188, -0.0830432, -0.2653811, -0.4479683, 0.0343930, -0.1461152, 0.3063342, 0.3165556, 0.0476309, 0.2816508, -0.0984167, -0.1449665, -0.4920043, -0.0030122, -0.0691187, -0.3895259, 0.3926458, -0.4611660, 0.1979575, 0.1236309, 0.3876457, -0.1829650, 0.1585577, 0.2614176, 0.3066184, -0.2619738, 0.2704319, 0.4401351, -0.5296237, -0.1648801, 0.2975343, -0.0583450, -0.4171284, -0.4658009, -0.1861187, 0.3537723, -0.3600782, 0.0141489, 0.0619234, -0.4739831, -0.1385061, 0.1029789, -0.1962870, -0.5492625, 0.3774346, -0.2533410, 0.1034932, 0.0753000, 0.3051727, -0.5281123, -0.3074985, -0.4575410, 0.0618285, -0.2909528, -0.0099007, -0.1422028, -0.0910211, 0.0872770, 0.2033964, -0.3665667, -0.4348738, -0.0034949, 0.1608037, -0.3380453, 0.1837931, -0.3451889, -0.3103630, 0.4915731, 0.2779073, 0.2529713, -0.3127339, 0.1608299, -0.3776017, 0.0352621, -0.3598912, -0.4259784, 0.2741508, -0.1343918, 0.3696721, 0.4011448, -0.0148983, -0.2097648, -0.3556076, -0.0329238, 0.1514549, -0.3749010, -0.4710658, 0.4727133, 0.0746580, -0.1539429, 0.0449425, 0.1176604, -0.1250400, 0.4667023, -0.0932906, 0.1428702, 0.0079099, 0.0316446, 0.2246097, -0.1128465, 0.0178057, 0.3832248, 0.5450234, -0.2292120, 0.3081695, 0.0301930, -0.3504170, 0.1752707, 0.1713836, -0.1874999, -0.2917308, -0.4988710, 0.3444415, -0.4419284, -0.2785890, 0.1570372, 0.0323845, -0.1347652, 0.1355907, 0.2071453, 0.4667823, 0.2829780, -0.3490202, -0.4082980, 0.4379255, 0.0234336, 0.3097636, -0.1350531, -0.1194264, -0.4622675, -0.1979858, 0.2698019, -0.2394864, -0.2837200, 0.1090148, -0.4099216, 0.0431581, -0.3311720, 0.2978592, 0.0410081, 0.4493433, -0.4382645, -0.1098496, 0.5322888, 0.2425805, 0.3739960, -0.1944489, -0.4231752, 0.0393694, 0.1369158, 0.2216795, -0.3761295, -0.0302417, 0.1950314, 0.2773785, 0.4005339, -0.0515450, 0.2747163, 0.0808324, -0.3119400, -0.4452734, -0.3682246, -0.0079150, -0.3681434, 0.2314811, -0.2455316, -0.1505492, -0.3901669, 0.1876381, -0.1241803, 0.3900967, 0.0007465, -0.4275431, -0.0068034, 0.1481235, 0.3448034, -0.2692189, -0.4400711, -0.1356465, -0.1104780, -0.0828355, 0.2031011, -0.1170963, 0.1471226, 0.4757829, 0.0192506, 0.3604048, 0.0405585, -0.2481029, 0.2668217, 0.4715497, 0.4120688, 0.4173916, 0.3431639, -0.0457639, 0.4353549, -0.0143493, 0.1712761, 0.3276027, -0.4843223, 0.5030620, -0.4378598, 0.1694535, 0.2282197, 0.0044727, 0.3910620, -0.1761054, -0.3073068, -0.2725651, -0.0350494, 0.3479299, 0.4466419, -0.1136075, -0.1572326, -0.0016747, -0.0170872, -0.4847861, -0.3749781, -0.3529238, 0.1942807, -0.3983187, -0.1731473, 0.3045129, 0.0643730, -0.0915209, -0.2567962, 0.1336683, -0.0322367, -0.2518886, 0.1483154, -0.3607857, -0.0783662, -0.0633621, 0.4224620, -0.1577990, -0.4552675, 0.1722577, 0.0593718, 0.2314144, 0.5054988, -0.3690822, 0.1841931, 0.4404607, -0.1829181, -0.0166066, -0.3727503, -0.1482202, 0.5071704, 0.0107820, -0.0267989, -0.0504776, -0.1229963, -0.0640029, -0.0435809, 0.2379028, -0.2263113, -0.1513736, -0.1278623, 0.0559874, -0.4717139, 0.0195848, -0.2148593, 0.5079324, -0.2285726, 0.2081202, 0.4185251, -0.2580782, 0.3076294, 0.0104439, -0.0708255, 0.1894227, -0.0606003, 0.2536144, -0.2356493, -0.0731839, 0.3353914, 0.2631973, -0.4430129, 0.4824266, 0.2703428, -0.3574594, -0.0703342, -0.0693327, 0.0683366, -0.3648935, -0.4124105, 0.4477707, -0.2228321, -0.1192943, -0.0815241, 0.2135164, 0.3652720, -0.2760271, -0.3158696, 0.1489010, 0.1373491, -0.0861981, 0.2636644, 0.3398538, -0.3403250, -0.4348058, 0.3057063, 0.2278499, -0.2464025, -0.1513267, -0.0184408, -0.2004825, 0.4487356, -0.0373811, 0.1720809, -0.0019674, -0.3030173, 0.2047232, -0.0900392, -0.0856988, -0.0343950, -0.0354270, 0.3247864, 0.0216234, -0.0845347, -0.1572055, -0.2552057, 0.1898734, 0.0352785, -0.1966946, -0.2267592, 0.5091482, -0.1322430, -0.0997839, 0.5099266, 0.1277132, -0.0173359, -0.1686777, 0.4577967, -0.2906094, 0.0762373, -0.2785828, 0.1565191, -0.2680960, -0.2004259, -0.2146386, 0.3757245, -0.0665104, -0.0425439, 0.1940266, 0.3970221, -0.0522715, 0.3761776, -0.3635221, -0.2821352, -0.3087588, 0.0649618, -0.4633239, -0.1835717, 0.2371753, 0.3467386, 0.1104908, -0.3102938, 0.1206526, 0.1028040, 0.4622318, 0.3312247, -0.1765731, 0.4407322, 0.0040469, -0.2451965, -0.0888842, 0.2132901, 0.3858405, -0.2200228, -0.1651964, 0.0368239, -0.2619284, -0.1207609, -0.1395246, -0.3202333, -0.4206563, -0.1545085, 0.0451679, 0.0119964, 0.1573639, 0.4676484, -0.3703629, 0.2694534, -0.3374774, -0.2459079, 0.0814817, 0.3627007, -0.4519125, 0.3485551, -0.3153401, -0.3373606, -0.3883969, -0.3968255, 0.3844741, 0.2790293, 0.2269483, -0.0492067, 0.4324420, -0.4183100, 0.0443091, 0.0437690, 0.1778468, -0.4912328, 0.3485546, 0.2577818, -0.2680422, -0.0626149, 0.4542875, -0.0408521, 0.1657687, -0.2931520, -0.0073739, 0.1280131, -0.5360721, 0.4566521, 0.4004167, 0.4340253, 0.1814363, -0.0129134, 0.2822236, -0.1310434, 0.1606106, 0.0710474, -0.2432037, -0.0058514, 0.0806699, 0.2938893, -0.1857993, 0.0627402, -0.3851614, -0.3479140, 0.1573713, 0.3152608, 0.2983215, 0.4195386, 0.3784879, -0.2457508, 0.0550346, -0.3707464, -0.1133227, 0.3715304, 0.2797379, -0.3357195, -0.4225224, 0.1460980, 0.0755505, 0.5329854, -0.1003947, 0.0313731, -0.0409900, -0.2717617, 0.3646044, -0.2129785, 0.1092692, 0.4530604, 0.2034766, -0.0833278, -0.3314997, 0.1659788, 0.3838161, -0.3249794, -0.2066357, 0.3427795, -0.4598750, 0.3430674, 0.0925474, 0.0078029, 0.0729073, -0.0237049, 0.1658906, 0.2173813, -0.4517756, -0.4105273, 0.1990758, -0.0873641, 0.1800362, -0.1399300, -0.3824648, -0.3867103, 0.3641073, -0.3844748, -0.2570787, 0.1888070, -0.1043742, -0.0855626, 0.3602778, 0.4737186, 0.4618015, -0.2369333, -0.1847326, 0.2060141, 0.1795223, -0.3523487, -0.2872555, 0.4020295, 0.1717004, -0.2854217, -0.1828702, 0.1646184, -0.4304656, -0.2592548, -0.3474627, 0.0049878, -0.3236318, -0.3299569, -0.1323818, 0.3889746, -0.1261877, -0.2523017, 0.3196386, -0.5085464, 0.2143622, -0.0996707, -0.3329584, -0.3388409, 0.4295155, -0.2840664, -0.0305046, -0.3422655, -0.0845771, 0.0969608, -0.5116852, -0.0558854, -0.2560535, -0.3902619, 0.3201498, -0.1567847, 0.1838090, 0.0219740, -0.0732446, 0.0804983, -0.0740835, 0.2820512, 0.3836903, 0.0608493, -0.1888353, -0.3835686, 0.3750423, -0.3323896, -0.2771819, 0.1810181, -0.2267597, -0.3347714, 0.3200566, -0.2864400, -0.3920458, -0.3484912, -0.4141469, 0.1852847, 0.1602006, -0.4742060, 0.3644612, 0.1731544, 0.3937582, -0.0536667, -0.0856684, 0.4971231, 0.0817346, 0.4686135, 0.1339230, 0.2395579, -0.2976836, -0.3306487, 0.1168629, -0.2686655, -0.2790130, -0.3893129, 0.1293704, 0.4448444, -0.1524852, -0.0079817, -0.0950791, -0.1646660, 0.3153764, 0.0467753, 0.1127440, 0.3298961, -0.1554797, -0.3648736, 0.2653908, 0.1333636, 0.0038416, 0.3050638, 0.3771710, -0.1925952, -0.2978774, -0.2837543, 0.2432103, 0.0662280, 0.5049017, -0.4673851, -0.2829687, -0.4628451, 0.1825417, 0.2911026, 0.1575046, -0.0644853, -0.3321292, 0.4015718, -0.4480981, -0.3447067, -0.2610663, 0.4416391, -0.2795311, -0.4600495, 0.3471924, 0.0246134, 0.3984816, -0.2583215, 0.0309356, -0.3810884, 0.0907648, 0.3173591, 0.2855099, 0.4022504, 0.1427411, -0.0514683, -0.4086751, 0.1311785, -0.4725878, 0.4257666, 0.0390491, 0.1992522, 0.3839809, 0.3936518, 0.3993686, -0.4737521, -0.2143760, 0.3121214, 0.4240662, -0.4252433, 0.0341185, 0.1357872, 0.0664620, -0.4303869, 0.0427496, -0.1495585, -0.2891435, 0.1787493, 0.5108208, 0.0052743, -0.2718503, 0.4266039, 0.1338367, 0.4333752, -0.0895235, -0.2795823, 0.3689365, -0.2046717, 0.2235034, -0.4670749, -0.1517400, -0.4663475, 0.1798048, -0.2582459, 0.5160536, 0.1107477, 0.1155705, 0.0998383, -0.3267356, 0.2835522, 0.0577929, -0.5017502, -0.3754230, -0.0515049, 0.1423595, 0.5293012, -0.3016244, 0.3348225, -0.4611374, -0.2341338, 0.2922355, -0.4373486, 0.0787852, 0.3912344, -0.0896798, 0.4213193, 0.4187239, -0.1423318, -0.3479048, 0.4667275, 0.4219899, -0.4296526, 0.4277477, 0.0457434, 0.2158422, 0.1019344, 0.1256050, -0.2042816, -0.0924860, 0.0839485, 0.2413521, 0.0495226, -0.2804891, -0.3682314, -0.4595211, 0.2898537, 0.3556969, -0.1505540, -0.3193124, -0.1576429, 0.1940560, -0.3564165, -0.4776187, 0.1505469, -0.2351058, 0.4288923, 0.3169955, -0.5049734, 0.0693557, -0.3925316, -0.1566060, 0.2792453, 0.1462818, 0.5310655, -0.4248553, 0.4775450, 0.4390815, -0.3388181, -0.2704686, -0.3879587, 0.0464905, -0.4583584, 0.2847878, -0.0810707, -0.1352096, -0.4155267, 0.4991697, 0.2728935, -0.0565908, 0.4154743, 0.1078669, 0.0015021, -0.4633889, -0.0091789, -0.0338473, 0.2477275, -0.4570694, 0.3526228, -0.3996302, 0.0606521, 0.0906246, 0.1416220, 0.3638978, -0.0615953, 0.0155412, 0.1037191, 0.1899012, -0.0371133, 0.4046408, 0.1825380, -0.1495112, -0.3008037, -0.1330475, 0.1307258, 0.2582599, 0.2499749, 0.0387519, -0.0586028, 0.4161179, -0.2548514, 0.0340115, -0.3417138, 0.0921467, -0.1145842, -0.3061042, 0.1521305, 0.4708174, 0.2297015, -0.0655307, 0.4403862, -0.1429944, 0.0442443, -0.0316255, -0.4087114, 0.2796414, 0.1223112, -0.1500051, 0.0210982, -0.0622012, 0.2750311, 0.2193569, -0.1539436, -0.2176410, -0.0079709, -0.1057159, -0.3869406, -0.2668104, -0.2267552, 0.4042247, 0.5062871, 0.1368199, 0.4273332, 0.3955797, 0.3294728, 0.0889665, 0.1470370, 0.4000151, 0.4494480, 0.4319132, -0.5076610, -0.2739629, -0.3632868, 0.4093974, 0.5133615, -0.4529219, -0.1050722, 0.2914144, 0.0509418, 0.0439477, -0.0330621, 0.1799115, 0.1335146, 0.0835720, -0.1493635, 0.4536213, 0.3758495, -0.1257127, 0.2993506, -0.0025386, 0.0405825, -0.2176480, -0.2467405, -0.3237756, 0.3087749, -0.3540956, -0.1842659, 0.2563110, -0.4785546, 0.0770459, 0.3213089, 0.1713870, 0.0916604, 0.0646225, 0.2907139, -0.1763551, 0.4012952, -0.2110557, -0.3658918, -0.0524626, -0.1745216, 0.3657739, -0.2785277, -0.4015291, 0.3689101, -0.3611335, 0.1512318, -0.4278058, 0.0972762, -0.3953247, -0.3110998, -0.1226295, 0.1649186, -0.4338239, -0.0098739, -0.2232779, 0.4232775, -0.0411069, 0.3310775, 0.0991991, -0.2295932, 0.0072741, -0.4000857, 0.3975045, 0.3905636, -0.3293760, 0.3116631, 0.0778452, -0.2570752, 0.1400840, -0.1383282, 0.2480305, 0.3274505, 0.3756431, 0.1831965, -0.5668398, 0.2991960, 0.1131317, -0.1093261, 0.3607732, -0.4359145, -0.4427871, -0.2066975, -0.2983041, -0.3767320, 0.2523538, 0.2563718, -0.3029131, 0.0055593, 0.1241060, 0.0775910, -0.3262091, -0.1315462, -0.1945365, -0.2142515, 0.5140673, 0.4855779, -0.3332147, 0.1029424, -0.1357694, 0.3372276, -0.1043162, 0.3701895, -0.3921010, -0.4072395, -0.4570812, -0.1070460, 0.0398804, 0.2033343, 0.0870164, -0.2376462, 0.4176031, 0.1203965, 0.0400155, -0.0431252, 0.0820013, 0.4087459, 0.1117535, -0.2268633, -0.4786551, -0.5086071, 0.0430331, 0.3837247, 0.2849579, 0.3726189, 0.3979987, 0.3465152, 0.2834071, -0.0391491, -0.0207467, 0.4643815, 0.2125902, 0.1110740, -0.0143613, -0.1625542, -0.1088508, 0.0683596, 0.2308094, 0.1902775, 0.1864874, 0.2547316, -0.0740950, 0.1746867, 0.2653968, 0.0194458, -0.1029698, -0.0793239, 0.0268553, 0.3090042, 0.1964868, -0.0032645, -0.0379333, 0.2942561, -0.2593922, 0.4504587, 0.3243155, 0.1579604, -0.3168688, 0.3923013, 0.2455117, 0.0673666, -0.2965269, -0.5030981, -0.1391352, -0.1068971, -0.4346280, -0.2987590, -0.4557124, 0.4196844, 0.1127256, -0.0793519, 0.1045263, 0.1845551, -0.4211795, -0.3492692, 0.2047044, 0.3679681, 0.0347413, -0.2557352, 0.1249603, -0.1256526, 0.1241860, -0.3940859, 0.4996839, 0.0240379, -0.1094199, -0.3837133, -0.1997702, -0.4705542, -0.3580815, -0.1852327, -0.3092426, -0.1458369, -0.1532809, -0.1274655, 0.3070952, -0.4644170, -0.4049293, -0.4180698, 0.4680840, -0.0405407, 0.2748167, -0.0419328, -0.1860895, 0.1074190, 0.1036898, -0.1413780, 0.3762081, -0.4243421, 0.0837796, -0.3136204, -0.0221851, 0.3334000, -0.1698329, 0.2727891, 0.2390866, 0.3328834, 0.0326035, 0.2114092, -0.2711314, 0.2311887, 0.4118074, 0.1017926, 0.1173494, 0.3571900, -0.1627184, -0.3551707, 0.1071761, -0.4125517, -0.1751689, 0.1484406, -0.2463438, -0.2988653, -0.0325586, 0.3823804, -0.1546887, -0.0836367, -0.2167290, 0.0039855, 0.2135497, -0.0768260, 0.3938941, 0.3630670, 0.1576714, -0.2245501, 0.2376926, -0.1557417, 0.0166392, -0.1046787, 0.0465438, 0.0414247, -0.4803399, -0.1684548, 0.4097265, -0.2129225, 0.1561788, -0.2018710, -0.0638213, -0.1287655, -0.3754120, -0.0784616, 0.1697804, -0.3930303, 0.4475315, -0.4798558, -0.4991404, 0.4153746, 0.1426239, -0.0538162, 0.1143581, -0.1576306, 0.3292421, 0.4053225, 0.5028470, -0.3829984, 0.2858605, 0.2129682, 0.3909488, 0.1437705, -0.2784335, -0.1304969, -0.3134694, -0.2261074, -0.2980368, 0.1001909, -0.3969009, 0.1243928, -0.1986786, -0.3890338, 0.1740913, -0.0452831, -0.2139972, -0.0165381, -0.1575789, 0.4945000, -0.3551222, 0.2179868, 0.1071111, -0.1288883, 0.3923374, 0.3219056, 0.2753857, -0.3388604, 0.2510817, 0.3569227, -0.2936201, -0.0630485, 0.0048846, -0.4706476, 0.0309282, -0.2383205, 0.2164528, -0.1927335, -0.4672205, 0.2979175, -0.1582054, 0.1841485, 0.3127753, 0.0165845, -0.0813977, -0.3254685, -0.2534853, 0.4578255, 0.0422955, 0.2549258, -0.4761431, -0.1807137, 0.3936268, -0.2179229, -0.2667053, -0.3422727, -0.1977905, 0.3195888, -0.0614643, -0.0424294, -0.3664338, 0.1078860, 0.0012980, 0.0936607, -0.2918668, 0.1619289, 0.2240676, 0.2056897, 0.1617380, -0.1726959, -0.0805389, -0.1595759, -0.0837263, 0.4171023, -0.1746065, 0.3344706, 0.1820162, 0.1667963, -0.1119549, -0.1380905, 0.1301711, 0.3782184, -0.1316495, 0.2829165, 0.4430119, -0.1546580, -0.1518246, -0.3900897, -0.0438625, 0.3743015, 0.3643004, -0.2564625, -0.3912864, -0.5080926, -0.3515767, -0.2951623, 0.1520877, 0.2661690, 0.0678838, 0.0268772, -0.1678477, -0.3103297, 0.0631841, 0.0700523, -0.0039701, 0.4860612, 0.0064677, -0.2352715, 0.1306086, 0.0636515, -0.2903115, -0.2361311, 0.2471128, -0.0305420, -0.1482844, -0.3777925, 0.1183323, 0.1443048, 0.3531523, -0.2997353, -0.0527855, 0.2204420, -0.0031402, 0.5151243, 0.4863936, -0.5468695, -0.3943589, 0.3522614, 0.2846762, -0.4045619, 0.4484906, -0.3975855, 0.0697885, 0.0950070, -0.0384316, 0.1286114, 0.3951570, 0.1550235, 0.1640261, 0.4102624, 0.2562358, -0.0072544, 0.0191950, -0.4281403, 0.4556080, 0.4654196, -0.3749506, -0.4577997, -0.3159939, 0.4499882, 0.2804998, -0.1672378, -0.4087849, 0.0607087, 0.3104845, 0.1163571, -0.5265068, -0.0198957, 0.2067693, -0.6245153, -0.0917461, 0.4112851, -0.3650433, 0.0234632, 0.0211789, -0.3706815, 0.4031903, -0.2673058, -0.3616266, -0.4319602, -0.1691471, -0.0364819, -0.3153841, -0.1745928, 0.3438754, -0.1102037, 0.0714958, -0.1930559, -0.4562258, -0.2157023, -0.3371159, -0.1250665, -0.2022021, -0.4548257, -0.1529471, -0.0335110, -0.0491576, -0.2712367, -0.1673301, -0.2835096, 0.0495541, -0.2046064, -0.1917153, 0.2161145, -0.0810397, 0.4097876, -0.1443471, 0.3898627, 0.1596718, -0.0256805, 0.0757987, 0.4686146, 0.1858729, -0.1535807, -0.2065852, 0.1826462, 0.1796877, 0.2645004, -0.2700267, -0.3809377, -0.0453137, 0.1145347, -0.0214641, 0.1562250, -0.2852018, 0.3408590, -0.4105733, -0.2000403, -0.2240084, 0.0186669, 0.0905570, 0.0292870, 0.3886037, -0.1485426, 0.4586323, 0.2822378, 0.4404683, 0.1702822, 0.0353427, -0.3343987, 0.2855720, 0.2342008, 0.1118566, 0.0843601, -0.4198782, 0.4905670, 0.0181514, 0.1014149, -0.3913480, -0.2704930, -0.2404736, 0.2788214, -0.4177693, -0.0945586, -0.3902542, -0.2418739, -0.4101920, -0.4110427, -0.5652604, 0.1241780, -0.3773922, 0.0621534, 0.1563190, 0.3000431, 0.1131935, 0.4362716, 0.4074243, -0.0977937, 0.2241422, 0.3983521, 0.1206010, -0.1668795, 0.2524151, -0.5128703, -0.2843312, -0.4697928, 0.1997603, -0.3691711, 0.0337042, -0.4205581, -0.0275649, -0.2770165, -0.3585992, 0.2442683, -0.2305557, 0.3084926, 0.0532619, -0.1975383, 0.4349892, 0.4383342, -0.0917713, 0.3288212, 0.4164601, -0.2705252, -0.2472397, -0.0148844, 0.0127543, -0.1117853, 0.3845506, -0.4323688, -0.0135875, -0.3333705, 0.2787185, 0.4586777, -0.3061973, -0.4076394, 0.2914401, -0.0900735, -0.3706133, -0.3947985, -0.2514054, 0.0318675, 0.0911750, -0.1835968, 0.2063613, -0.0399427, 0.4510666, 0.0723725, -0.2443049, -0.0133634, 0.1878957, -0.3811457, 0.3083698, -0.2674941, 0.4243591, -0.2775265, 0.2061091, -0.4912004, 0.0272104, 0.4891843, 0.0027035, -0.3082851, 0.3052696, -0.2057648, 0.4341331, 0.4698455, 0.3654441, 0.5092875, 0.0161461, -0.4033432, -0.2863733, 0.0602035, -0.0567062, 0.0212849, 0.3973877, -0.3867510, -0.3560987, -0.3688640, 0.0905691, 0.0033235, -0.2341961, 0.2342627, -0.4326692, 0.3886332, 0.3177028, 0.5013800, 0.1644919, 0.5093291, 0.1351518, -0.0747029, 0.1164371, -0.2953793, 0.1961653, 0.1361427, 0.0888633, 0.2631741, -0.0271933, 0.1306131, -0.0752320, 0.0013716, 0.1722763, -0.4750009, 0.3477187, 0.0665818, 0.1338914, -0.0930546, 0.2186608, -0.2145734, -0.1340760, -0.1968205, -0.1541907, -0.2794681, -0.1957416, -0.3678591, 0.3849473, -0.1345695, -0.0232776, -0.1132955, -0.2248712, -0.0346977, 0.0994168, -0.4116273, 0.1758503, 0.1515056, -0.2631243, -0.0012664, 0.2449262, -0.1561234, -0.4475946, 0.2914744, -0.2455910, -0.4251128, -0.2506402, -0.4058378, 0.0674316, -0.3916755, -0.1824824, 0.4243227, 0.0190077, 0.5144771, -0.3624317, 0.1929839, -0.1603446, -0.2340142, -0.3521906, -0.2888262, -0.3597459, -0.2549842, -0.3047747, -0.4901008, 0.4875927, 0.2388092, 0.6214829, -0.0532195, -0.4415133, 0.0922363, -0.3564928, -0.1095437, -0.4449128, 0.1891398, 0.2531432, -0.5407363, -0.4152424, -0.2976287, -0.1572058, 0.3809851, -0.0767378, 0.4574901, 0.4247027, -0.1630616, -0.1531778, -0.2250501, -0.4761291, 0.0651557, 0.3116837, -0.4467144, -0.3005311, -0.1712966, 0.2824337, 0.2518619, -0.1636999, -0.1583887, 0.1979602, -0.1664152, -0.0169086, 0.0168811, -0.2512512, -0.1548345, -0.1684058, 0.3469588, -0.1965092, 0.4984795, 0.1671753, 0.2510012, 0.1771618, -0.0032685, 0.0806439, -0.2740183, -0.5276303, -0.3485356, 0.4234280, -0.0225382, -0.0598635, 0.1992315, 0.0367640, -0.3052759, 0.3105173, 0.2298708, 0.2076470, 0.3803828, -0.0530624, -0.2921152, -0.4282380, -0.0222901, -0.2996706, 0.5019805, -0.4368488, 0.4847875, 0.2866373, 0.5144047, 0.3216499, 0.2527816, -0.4049356, -0.2926135, 0.1044182, -0.3401350, -0.2625629, 0.4366374, -0.2429202, -0.1323121, 0.2148550, -0.1728977, -0.2761717, 0.0764304, 0.4789946, 0.1251567, 0.4425689, 0.1857668, 0.2767120, 0.2452520, 0.1414229, 0.1628955, -0.5541536, -0.1155452, 0.2577770, 0.0375007, -0.4393169, -0.0372658, -0.0156822, 0.3668462, 0.5129751, -0.1531328, -0.4281622, -0.5330350, 0.1887088, 0.4865376, 0.0036204, 0.4182502, -0.2374094, 0.0447979, -0.3831178, -0.1611218, 0.3042030, -0.2151811, 0.1723046, -0.4019043, -0.4383660, 0.3588784, -0.3864193, -0.4013585, 0.1509429, 0.4700994, 0.2673132, 0.2671810, -0.3993484, 0.1166139, 0.2934249, -0.2472166, -0.3532674, 0.4685827, -0.0263787, 0.3628010, 0.1316424, 0.4169548, -0.3379529, -0.1694955, 0.1768136, -0.1160034, -0.0295388, -0.0068507, 0.4136860, 0.1136421, 0.4354862, -0.2276770, -0.0149551, 0.2397498, -0.0695418, -0.4384645, -0.0200926, -0.3767939, 0.1737158, 0.1077037, -0.0954757, -0.0887257, 0.3905264, -0.3409736, 0.3349375, -0.0774661, 0.1569608, 0.1732895, 0.1186776, 0.0079842, -0.1583059, 0.4529156, -0.0905121, 0.1502592, -0.4775743, 0.3706385, -0.1790173, 0.2324495, -0.4013780, -0.1473316, 0.1535934, -0.3324980, 0.0337238, -0.0841029, -0.2965842, -0.3875345, -0.1425923, 0.2464889, 0.2620906, -0.0215031, -0.5137531, -0.3523481, 0.0033132, -0.0755375, -0.4619466, 0.2094315, 0.1185101, 0.3938472, -0.2867653, -0.0710781, 0.0166370, 0.3540056, -0.4324279, -0.2272458, 0.3627298, -0.2088780, 0.0846389, 0.1337178, -0.1702020, 0.4941444, -0.3561133, 0.0912898, 0.2705253, 0.0619948, -0.0311501, 0.4876015, 0.0125097, 0.1853657, -0.2878826, 0.3217625, 0.2704463, -0.3999907, -0.3214749, 0.2908015, 0.3559797, -0.2594520, -0.2539943, 0.0864386, -0.3511763, -0.2841888, -0.4150473, -0.2622745, -0.4834146, -0.2275034, -0.4299092, -0.0791628, 0.0978663, -0.0423537, 0.2428346, 0.2179691, -0.3811446, 0.4654441, -0.1505477, -0.4809125, -0.3222002, -0.3941768, -0.0067856, -0.0439216, -0.3518712, -0.1974781, -0.0752480, 0.2982753, -0.2195749, -0.1843961, 0.2877057, -0.0763841, 0.3383888, -0.1375884, -0.1055668, -0.2445057, 0.2474217, -0.4349882, -0.0994362, 0.3562569, 0.0705274, 0.5300832, 0.2189012, 0.2214840, -0.4333866, 0.1532497, -0.2784898, -0.0293591, 0.3982410, -0.0667759, 0.2922260, 0.1002459, -0.0119345, 0.0729179, 0.0116230, 0.4525313, -0.0819684, 0.0487323, 0.2700527, 0.1430757, 0.3270255, 0.2829028, -0.3423047, 0.2688895, 0.0432086, -0.2744639, 0.4100330, -0.2635227, -0.3218015, -0.5128489, 0.0929514, 0.1555862, -0.0437175, 0.5169459, -0.4104769, -0.0692253, -0.0758906, 0.1194386, 0.4589338, 0.4080500, 0.5063315, -0.1493727, 0.2752230, 0.2472915, -0.3135514, -0.2745435, 0.0324277, -0.3732610, 0.2933209, -0.0760224, -0.1721695, 0.0159063, -0.0868625, -0.1279884, -0.1510400, -0.1404950, 0.1584022, 0.3495389, 0.3333030, -0.1681083, -0.5107023, -0.0559203, -0.0052529, -0.1806292, 0.4492985, 0.4063005, 0.0050686, 0.1432843, 0.1901539, -0.3245626, 0.0562530, -0.1763383, 0.3417682, -0.0674521, -0.2661307, -0.0911713, -0.1904277, -0.0520637, -0.1915235, 0.2760686, -0.3192626, -0.4331536, 0.2833302, -0.3443948, -0.3633289, -0.3470055, 0.2535644, -0.3721827, 0.2327130, -0.3342262, -0.3427403, 0.5031934, 0.0052371, 0.0649911, 0.3535729, 0.3944243, -0.0590682, -0.2738027, -0.2226599, -0.3326943, 0.4471239, -0.1019605, -0.2708510, -0.0691058, 0.4933551, -0.3413360, -0.3954367, 0.0582889, 0.1281021, 0.3819368, 0.0262196, 0.1705914, 0.4022943, -0.3723704, -0.4675448, 0.0742597, 0.4193244, -0.1538386, -0.3800234, -0.1928135, -0.4077280, 0.3320764, -0.2224752, -0.3841100, 0.0424683, 0.4909851, 0.0503009, 0.4433418, 0.2157952, 0.0123432, 0.1063217, -0.4819192, 0.4425110, 0.2274972, 0.0714738, -0.0351441, 0.1578070, 0.3653242, 0.4346443, -0.3950123, 0.4875132, 0.4300040, 0.3152030, -0.2823765, -0.0581233, 0.5190085, -0.3006226, -0.0397550, -0.4376274, -0.2979442, 0.4168794, -0.3982936, -0.1380716, -0.2567708, -0.1625619, -0.1303833, 0.4822999, 0.4431233, 0.0637700, 0.2158303, -0.3461038, -0.2718669, -0.2290728, -0.2966021, 0.4487713, -0.1211839, -0.0198478, 0.4207226, 0.1324017, -0.2252338, -0.2547984, 0.1142959, -0.3201131, 0.2456234, -0.1141514, 0.0405041, -0.3391625, -0.4100828, 0.1848332, 0.1505167, -0.3335236, 0.2868432, -0.1980215, -0.1620462, -0.4808536, -0.1462396, 0.0544047, -0.0023702, -0.0607029, 0.0873203, 0.0834367, 0.4148480, 0.1612022, 0.0824026, -0.3842977, -0.2455452, 0.3144656, -0.2232296, 0.4518968, -0.2342066, -0.1266210, -0.0575097, 0.0050257, -0.0208110, -0.1800196, 0.0804539, 0.0175811, 0.1935859, -0.2524156, -0.2954215, -0.1368535, -0.2982554, -0.3215026, 0.3467775, -0.4420540, 0.0189901, -0.0551811, -0.2296441, 0.4539864, -0.1552444, 0.5219353, -0.0881768, 0.3493967, -0.1307037, 0.1028470, -0.1032522, -0.1339689, -0.3945414, 0.4019815, -0.3001534, 0.2769214, -0.0713456, 0.1393839, 0.4336866, -0.3729177, -0.1794921, -0.4105380, -0.3924694, 0.1145430, -0.4692544, 0.5065768, 0.2697873, 0.4072639, 0.1863456, 0.3668210, -0.3652734, 0.3825034, -0.0179737, 0.2395428, 0.0152595, -0.4481976, 0.3497921, -0.1062069, -0.2320404, -0.3372341, -0.3305014, 0.3551905, -0.1185905, -0.2763895, 0.1113568, -0.3010687, 0.4950772, -0.0822394, 0.0411795, -0.2952289, 0.3079359, 0.1771727, -0.1821184, -0.1984411, 0.3354357, -0.2685012, -0.1323985, 0.0686302, 0.4811382, 0.4834638, 0.2923783, -0.1898232, 0.3792937, 0.2857488, -0.2278825, 0.4765718, -0.1317184, -0.1929859, -0.4163189, 0.2787328, -0.3823507, 0.5700216, -0.0007189, -0.3125149, -0.3158479, -0.1141998, -0.3828555, 0.3771952, -0.3241968, 0.0898911, -0.1464713, 0.3459571, 0.2989354, 0.0385138, 0.1362096, 0.4537847, -0.1802940, 0.4529284, 0.0608334, -0.0575645, 0.1779586, 0.1051537, -0.2467708, 0.1899742, 0.5322115, 0.4706690, -0.2130838, -0.0993080, -0.1311458, -0.4935591, -0.1095952, 0.1941861, -0.3612342, 0.1125765, 0.1740438, 0.3762806, -0.2426567, -0.2133388, 0.1842385, 0.5142274, -0.2632427, 0.1828944, -0.1274469, -0.3585652, -0.2206445, 0.4019864, -0.1125103, 0.3115432, -0.3741575, 0.1597397, 0.0912039, 0.3488505, -0.4293548, 0.1588338, 0.3091904, 0.3519859, 0.1585051, -0.0389523, -0.0213029, 0.1204618, 0.3906478, -0.4835483, -0.2391818, 0.4442014, 0.2543461, 0.3878772, -0.0625848, -0.0714775, -0.0946390, -0.3728256, 0.0850410, -0.1932302, 0.3911129, -0.1977028, 0.1066504, -0.0167810, -0.0569763, 0.4525596, -0.1031581, -0.1367570, 0.1439849, -0.4656448, 0.0307094, -0.3859919, 0.1488446, -0.1947324, -0.2895675, -0.1579632, -0.3779208, -0.3615484, 0.5260509, -0.0406027, 0.3111669, 0.1827513, 0.2361995, -0.1548110, 0.3351727, 0.3648977, -0.2145195, 0.5209705, 0.1339852, -0.2591234, 0.1247071, -0.1502067, -0.0920977, -0.1973382, 0.0467483, -0.0246470, 0.2361311, -0.5034366, -0.0969517, 0.2331202, 0.0169290, 0.2791576, 0.4790535, -0.1264556, -0.3958458, -0.3042502, -0.2584078, 0.1483347, 0.2805845, -0.4118453, -0.5334783, -0.1297135, -0.0638967, -0.2888735, 0.2253264, -0.0383736, -0.2053698, -0.0639008, -0.1641459, -0.3595038, -0.3233770, -0.2939818, -0.4527881, -0.2950332, -0.3934155, -0.1018745, -0.4473271, 0.0612024, -0.0982137, 0.1148022, -0.2098388, 0.5076014, 0.0028149, 0.3426678, -0.2355570, -0.0138692, 0.1640753, 0.2891121, -0.2967792, 0.1360628, -0.2197953, -0.4985748, 0.0115110, -0.3933032, -0.3087757, 0.2602192, 0.4091550, -0.2915122, 0.2654938, 0.2682073, 0.2506774, -0.4030839, -0.5879509, 0.0878820, -0.3497790, -0.2268194, -0.4032643, -0.3924760, 0.0678867, -0.4254279, 0.3003985, -0.5041426, 0.3968568, 0.0643915, -0.2069861, -0.4288759, -0.0776038, 0.0414236, -0.4257096, 0.2600627, 0.5106170, 0.1960869, 0.4241979, -0.2345940, 0.2994152, -0.1969715, 0.1362460, -0.3781042, -0.4524290, 0.3217988, 0.2734082, 0.0736070, 0.4501848, -0.0467621, 0.2316086, 0.1595120, 0.1236414, 0.3614856, -0.2067481, -0.4216848, -0.0769263, -0.1714363, 0.2018410, 0.3992592, -0.0773970, 0.0186835, -0.0640577, 0.0566118, -0.0041121, 0.1309631, 0.2187386, 0.3661090, 0.2548387, -0.1234753, 0.3007870, 0.0970492, -0.2044279, -0.0996644, -0.1201926, -0.3201922, -0.1358690, 0.1684256, 0.1419874, 0.0746282, -0.1602811, 0.0287773, 0.2613607, 0.0400266, 0.2240946, 0.3401625, -0.0372217, 0.5479145, -0.4517155, 0.1938084, -0.4426135, -0.3603879, -0.1316127, 0.1099178, -0.4351347, 0.2090609, -0.2121348, -0.0076082, -0.3620259, 0.3202104, -0.1831805, -0.2570535, 0.5032890, 0.1781012, -0.1787039, -0.3089027, -0.0923527, 0.3293079, 0.2006989, 0.4179947, -0.2235814, -0.0476645, -0.0720218, 0.1082428, 0.3654399, -0.1813364, -0.1673441, -0.2354890, 0.0582730, -0.4589665, -0.2865652, 0.2791829, -0.0364403, 0.3436874, 0.2086930, 0.3406376, 0.0014278, 0.2177047, 0.2704628, 0.1709165, -0.0357716, -0.4360427, 0.0705928, -0.4531867, -0.4350128, -0.2872704, -0.3146230, 0.0306934, -0.4293509, 0.1041430, 0.1340541, -0.0193576, 0.3049880, -0.1121963, -0.4059658, 0.3821262, 0.2161066, -0.0525630, 0.0162745, -0.3237617, -0.3786520, 0.0961989, 0.2910301, -0.2448801, 0.2012870, -0.1870335, -0.3372436, 0.2490248, 0.1077549, -0.1154830, 0.2318935, 0.1949809, 0.3530179, -0.1211749, -0.4251610, 0.0869747, -0.2115221, -0.3562129, -0.2925745, -0.0743416, 0.4316451, 0.3584442, 0.2124382, 0.2486283, 0.1487302, 0.4400707, 0.0792733, 0.1151257, -0.0449884, 0.0269690, 0.1722495, 0.1397873, 0.2833582, -0.4986552, 0.0554245, 0.2758756, 0.3028528, 0.0199031, 0.1550488, 0.2860959, 0.1120730, 0.2584097, 0.4389827, -0.1624668, -0.0368328, -0.1516109, -0.2344792, 0.2926095, 0.3632179, -0.2981834, 0.4457080, 0.1224265, 0.1420844, 0.2406403, -0.3816502, -0.1876082, 0.2491445, 0.1203986, 0.3630459, 0.2731339, -0.2295139, 0.0666510, -0.1421664, -0.3511901, 0.2925283, -0.0314899, -0.5560583, 0.3244987, -0.0149471, -0.1808530, 0.2175238, 0.2703507, -0.4415237, -0.1807739, 0.3593838, -0.3166806, 0.0341798, 0.3428597, -0.4755030, 0.1197968, -0.6029021, -0.0035833, -0.1838679, 0.1352890, 0.0857488, -0.2044865, 0.5633497, -0.0802581, -0.3216098, 0.0520967, -0.2421033, 0.4098235, -0.0781090, -0.2154747, 0.1927390, -0.3373853, 0.0760506, 0.3386823, 0.0265195, 0.2120304, -0.4103696, -0.0350780, -0.2321829, -0.2497427, -0.2816765, -0.4384006, -0.3918553, 0.2886237, 0.1121461, -0.0638004, 0.1026396, 0.2386475, 0.1344334, -0.0013886, 0.0098681, -0.3424783, 0.0415042, 0.1789518, -0.3070507, -0.2013896, -0.4295474, -0.0030389, -0.2658802, -0.2608262, -0.3953560, 0.3477964, 0.0992767, -0.2718602, 0.1301380, -0.4811027, -0.3695287, 0.1390229, -0.5222923, -0.3334492, -0.4381474, -0.2457789, -0.0700346, 0.2798684, 0.5330136, -0.5569047, 0.3021738, -0.0796169, -0.2057076, 0.0506203, -0.1755581, 0.2873740, 0.0660865, -0.2934684, 0.1566248, -0.4314177, -0.0542374, 0.1988350, -0.4375994, -0.1014749, -0.0727779, 0.5351925, 0.0260243, -0.1436171, -0.5845351, -0.1112491, -0.5726053, -0.2029927, -0.3282000, -0.3916466, -0.4318846, 0.4273530, 0.5628555, -0.2276550, 0.2447125, -0.2945353, -0.2401271, 0.3907101, -0.0241949, -0.3061769, -0.0892139, -0.3844283, 0.3265689, -0.2528877, 0.4809628, 0.5453613, 0.1179651, 0.3116012, -0.4701681, 0.1674192, 0.0605928, -0.0301751, -0.1758773, -0.0030237, -0.1999365, -0.5798287, 0.2462300, 0.2958907, 0.4298603, -0.0121275, 0.0909137, 0.2594742, -0.3703519, -0.2447461, 0.0573647, 0.0570310, 0.0929822, 0.2940108, 0.1863647, -0.4208225, 0.4123188, -0.1273622, 0.2683403, 0.0097930, 0.2102812, -0.0435089, 0.4466218, 0.1254261, 0.3137993, -0.0481732, 0.0085290, -0.1495376, 0.3459855, -0.0378770, 0.2177994, 0.2415120, -0.2127727, -0.3237372, -0.4413859, -0.2183972, 0.0798808, 0.1409477, -0.5087223, -0.1342955, -0.4649600, 0.5322989, 0.4498139, -0.3438838, 0.4809159, 0.3520405, -0.2477764, -0.3451101, 0.5128747, -0.2190484, -0.1465729, 0.3191831, 0.0210316, 0.4031950, 0.1203769, 0.0423914, -0.1898429, -0.0012656, 0.2721973, 0.1813427, 0.5189060, 0.3226657, 0.3020984, 0.3821598, 0.3706312, -0.3080726, -0.3233211, 0.2310947, 0.2716209, 0.1446353, 0.3985474, -0.0527818, 0.3341112, -0.3026967, 0.4459907, -0.1058681, -0.4272615, -0.5727689, 0.3014462, -0.3489349, 0.0659549, -0.2031975, 0.3400181, 0.4242630, -0.0103041, -0.1543157, -0.0113575, -0.0627885, -0.0657475, 0.1524659, 0.0829432, 0.3456484, -0.3471729, 0.0977892, 0.3471316, 0.2336391, 0.4696884, 0.2295842, -0.0474074, 0.4297685, -0.2752793, -0.0283168, -0.2858467, -0.3781520, -0.5539155, -0.0447293, -0.1127913, 0.3539391, -0.1316224, -0.1623791, -0.1876647, -0.0892534, 0.4361110, 0.3719839, -0.1222405, 0.3377487, -0.4352816, -0.2820792, 0.3210895, 0.2388865, -0.1603921, 0.4080174, -0.2547197, -0.5221780, -0.1668775, 0.1278955, 0.2264851, 0.2749452, -0.3734003, -0.1755072, -0.1678027, -0.2706554, -0.2235744, -0.1566423, -0.1772518, -0.2340828, 0.2008519, -0.3354267, -0.2125363, -0.0792868, -0.5152726, -0.1981049, -0.3371400, -0.3622214, -0.2457361, 0.0311266, 0.3468427, -0.3084112, -0.0826116, 0.1604238, -0.1182749, -0.1384509, -0.0281523, 0.1069899, -0.3731145, 0.4060440, -0.1172988, 0.1027528, -0.4005002, -0.0970781, -0.3318197, -0.0237035, 0.0170635, 0.1660134, -0.3365265, 0.0603202, 0.0898867, -0.5575709, -0.0358472, -0.2471305, -0.3558811, 0.4097148, 0.3126876, -0.0786933, 0.1185608, -0.4505315, -0.2331315, 0.1842170, -0.0199111, -0.2375909, 0.0685890, -0.0136077, 0.1199757, -0.5025986, -0.4459358, -0.0844847, 0.2127598, 0.3447186, 0.3342755, -0.1348344, -0.1539265, -0.2298915, 0.2678553, 0.3294865, -0.0507510, -0.2424867, -0.3338592, 0.3241694, -0.2615194, 0.3713543, 0.3425888, 0.2810108, 0.2699920, 0.4483986, -0.3741572, 0.1485526, 0.4263024, 0.3980374, -0.1945865, -0.0088161, -0.2309712, -0.1238780, -0.4556635, -0.1635985, -0.3922118, 0.1344427, -0.1872354, -0.3782673, -0.1217520, -0.3238670, 0.1035841, 0.3813690, 0.4231937, 0.0666453, 0.4159343, 0.3396907, 0.3585295, -0.2051022, -0.2985296, 0.4816367, -0.0576109, -0.4584884, -0.3442300, 0.1634772, -0.1570913, -0.4481857, -0.1624336, -0.3417906, 0.2215229, -0.0620053, 0.0991929, -0.1564788, -0.3096265, -0.1993730, 0.2601216, -0.1707859, -0.1440716, 0.1202049, -0.2917519, 0.3325043, 0.0843296, -0.1564412, 0.2352213, -0.1558448, 0.0324105, 0.1421984, -0.2123925, 0.4075255, 0.2930813, 0.1220650, 0.2817487, 0.4406885, 0.3176932, 0.1399967, 0.4636291, -0.1426286, 0.1879504, -0.3320206, -0.0563775, -0.2617007, 0.0462955, -0.4323342, -0.0064178, -0.1156018, 0.4931974, -0.4452698, 0.1306791, 0.0435752, 0.4353470, -0.2919134, -0.2100212, -0.2664956, -0.1165446, 0.0410398, -0.2949626, 0.0056838, -0.3525432, 0.5041835, -0.4608963, -0.1439521, 0.4745857, 0.3250671, -0.4454867, 0.2690091, -0.1220748, 0.0302986, -0.4438357, 0.1815243, -0.2261519, 0.4823886, 0.3507223, -0.0649958, 0.4519933, 0.4665759, -0.1419221, -0.4737351, -0.2249345, 0.2697304, -0.0034991, 0.1889459, -0.0125779, 0.1270994, -0.2382707, -0.0414242, -0.0092435, -0.2181413, 0.0861118, -0.0608485, 0.1777810, -0.0098967, -0.1278810, 0.3357142, 0.1164933, 0.2178446, -0.0644293, 0.2874846, 0.1673164, -0.0231541, 0.1764494, 0.3129741, 0.3148339, 0.2308395, 0.3912539, 0.4473401, 0.1080663, -0.1102394, 0.1590360, 0.1081032, 0.3394829, -0.5300224, -0.4620770, 0.3049762, -0.0745108, 0.3785929, -0.2163462, -0.4572126, -0.3338997, -0.3764782, -0.0364552, -0.4140624, 0.1239006, -0.3496042, 0.3483756, 0.4074113, 0.0761881, 0.2257780, -0.4395367, 0.0592273, 0.2011935, -0.4968912, 0.4295711, -0.3666890, -0.1657744, -0.2516018, 0.0567290, -0.2803422, 0.4907890, 0.3566326, 0.0283596, 0.2413913, 0.1037414, -0.2315455, 0.1705371, 0.1016661, -0.0212239, 0.0252834, 0.4446259, -0.2818128, 0.2425732, 0.4752098, -0.0309072, -0.0922845, 0.3425997, -0.3747266, -0.4948535, 0.1148046, -0.1536890, 0.2417318, 0.4579127, -0.3483230, 0.4914277, -0.3952555, 0.1803937, 0.2094717, -0.3313885, -0.4593704, -0.0537521, 0.2723869, -0.4478865, 0.3312332, 0.1194542, -0.1902862, -0.0204039, 0.1945344, 0.1239925, -0.2887659, -0.5022238, -0.2339301, -0.2490114, 0.3998035, -0.0308443, 0.0949298, -0.1489678, -0.3919702, -0.4466522, 0.3579721, -0.0947146, 0.1521688, -0.2608029, 0.4290634, -0.3042006, 0.3777632, -0.2260246, -0.3062741, 0.3667579, -0.4174404, -0.4508730, 0.0701320, 0.1248353, 0.1399666, 0.4630383, -0.2467694, 0.0431515, 0.0094857, 0.5112804, -0.4405369, 0.1463198, -0.1068783, -0.2992421, -0.2497178, -0.0154817, -0.1251374, -0.2590310, -0.0903595, 0.3321069, -0.4579892, 0.1543661, 0.3444093, -0.1361833, -0.0800787, -0.0822258, 0.1995606, 0.3859695, 0.2398807, 0.4784417, -0.3748097, -0.4255982, -0.4695657, -0.0186118, 0.3844015, 0.1819167, 0.3732118, 0.2463043, 0.4444252, 0.0157735, 0.4102888, 0.1832698, 0.2694499, -0.0286767, 0.2183246, -0.0140535, -0.2363479, 0.1976482, 0.4021718, 0.4770339, 0.1754089, 0.3469108, 0.0724991, 0.4478575, 0.1480767, 0.2987149, -0.0640928, -0.0168148, 0.4243149, 0.3534139, 0.2143470, 0.4453875, -0.0526045, 0.1799239, -0.0313037, -0.1218020, 0.2249723, 0.1191479, -0.5102908, 0.4648787, 0.4090143, 0.2840499, -0.3754779, -0.4302221, -0.3605852, 0.3386116, 0.2548719, 0.0348890, 0.1528974, -0.4677946, 0.5705606, 0.0528151, 0.2098648, -0.4178197, -0.4615975, 0.0524318, 0.4911780, 0.0077285, -0.1217957, 0.4670162, 0.4477235, -0.0378299, 0.0781629, 0.1400201, -0.4324011, -0.1486298, -0.2132348, -0.2873005, 0.3464761, -0.3415984, 0.2967436, -0.4227408, 0.1887292, 0.3611469, -0.3680156, 0.4653064, 0.1572488, -0.2641365, 0.0180269, -0.4123569, -0.0733351, -0.0110845, -0.3235133, -0.4648147, -0.2571397, -0.4334498, -0.1229180, -0.2610690, 0.4537629, 0.2710083, -0.0884370, 0.2208485, -0.0254540, -0.2903266, -0.2488829, -0.4272560, -0.1224550, -0.4304856, -0.2928407, 0.4527901, -0.2849595, -0.2052602, 0.3620758, 0.4390137, -0.1339079, -0.4029985, -0.2916121, -0.3947867, 0.3987420, -0.1962903, 0.2138136, -0.1457558, -0.0929064, 0.1047473, -0.0027008, -0.4606893, -0.5137610, -0.4116598, -0.1674273, -0.0685234, -0.2552006, -0.2614339, -0.0477960, -0.4042791, -0.2292722, -0.4519501, -0.4828417, -0.3520576, -0.0105807, 0.2644793, -0.3915579, -0.1471170, 0.1399950, -0.3501362, 0.0504353, -0.2440721, 0.4879999, -0.4534054, -0.1367585, -0.0058312, 0.3382681, -0.5528653, 0.1465465, -0.4939006, 0.2426098, 0.2478507, -0.0179580, -0.1041073, 0.3376166, 0.0826674, -0.1906511, 0.0379435, -0.0033508, -0.2881340, 0.1436381, 0.3326392, 0.1847006, -0.4638268, 0.3840333, -0.1784398, -0.3717266, -0.0368226, -0.5047727, -0.2079625, 0.1277330, 0.0656051, 0.1711212, -0.3026684, -0.2529977, -0.1212310, 0.3050474, -0.3920835, 0.0074225, -0.4294131, -0.3844506, 0.4600306, -0.3588136, 0.3381715, 0.2418980, -0.3751942, 0.4100043, -0.4819468, 0.3472081, -0.3001649, -0.4817068, -0.4213527, -0.5232228, -0.2399786, 0.2836173, 0.0806436, -0.3651516, 0.4091696, -0.4046310, -0.4837419, 0.2105947, 0.2848069, -0.0309672, 0.1962070, -0.2213635, 0.0919807, 0.1249092, -0.2440328, -0.2993492, 0.2340100, 0.0058467, 0.0962291, -0.2606905, 0.2666507, -0.2206531, 0.3000435, -0.3028510, 0.2610058, -0.3128258, 0.1581697, 0.2335221, 0.0615840, 0.4170824, 0.3030433, -0.1693260, 0.0310885, -0.2388833, -0.0249192, -0.3137640, -0.4171326, -0.1699981, 0.0732561, -0.2598091, -0.2700376, -0.0949850, 0.1131922, -0.2784078, 0.1629279, -0.0644535, 0.4856999, 0.4663018, 0.4397276, -0.0785159, 0.1437323, 0.3926390, -0.3000696, -0.0607232, 0.2991869, 0.4753381, -0.1487038, 0.2428136, 0.3064354, 0.1216162, -0.4662312, -0.1975480, 0.3649036, 0.4888391, 0.4776334, 0.2686877, -0.4563021, -0.0419866, 0.4564529, 0.5048845, 0.3593967, -0.1016589, -0.0987032, 0.3663974, 0.4320163, -0.4858994, -0.4429328, 0.1374614, 0.3894991, -0.1202572, 0.2877629, 0.2647046, -0.3517300, -0.1225068, -0.4256386, -0.2181261, 0.0915776, -0.3074978, 0.1349504, 0.2764383, -0.2608146, -0.4178387, 0.1868567, 0.3087818, 0.1157089, 0.0040778, -0.2891064, -0.3069711, -0.3779994, -0.1825067, 0.0917472, -0.2895398, -0.4164695, -0.4652551, 0.5097481, -0.2767522, 0.2940419, -0.1955331, 0.3485343, -0.4428923, 0.0240086, -0.3777812, 0.1723482, 0.5315461, 0.1448481, -0.3126386, 0.4396180, 0.1477374, -0.4487049, 0.0052345, 0.0248146, 0.0410380, 0.2499259, 0.3554284, 0.5084522, 0.3803711, -0.3409077, 0.3675216, 0.1689553, 0.1270187, -0.2726770, -0.3433598, -0.2106976, -0.2956316, -0.3007851, 0.3526182, 0.4354995, -0.0681592, 0.0996184, -0.4577435, 0.2380423, 0.5452231, 0.4150775, -0.3962405, 0.4284868, 0.2813968, -0.3505242, 0.4807881, -0.4699802, 0.2873701, -0.4002274, 0.2665457, -0.4813573, -0.0097127, 0.1550180, 0.2093807, -0.2051618, -0.4251762, 0.0037183, -0.0241280, 0.1615763, 0.0879498, -0.4431965, -0.3413383, 0.2653812, -0.3650273, -0.2070934, 0.2328795, 0.0872752, -0.1081546, 0.1197414, 0.5153800, -0.1226160, 0.1557807, 0.1016982, 0.1463801, -0.3799588, -0.1046505, -0.1997325, 0.2810007, -0.0247853, 0.4839996, -0.0345795, 0.0359459, -0.0517666, 0.1085181, -0.0383423, -0.4080251, 0.4434285, -0.2352125, -0.4553639, 0.2500964, 0.1449173, 0.4849823, 0.0355759, -0.0675007, 0.2498525, 0.1956764, 0.1678433, 0.1568129, -0.3599106, 0.3844056, -0.3794993, 0.3047258, -0.0268884, 0.2430921, -0.2085323, 0.3137831, -0.0400672, 0.0417291, 0.1117387, -0.3635011, 0.1014751, -0.3153524, -0.0855453, 0.0761136, -0.3918303, -0.0555933, -0.1201633, -0.4608005, -0.3747833, 0.4926222, 0.4084236, -0.5468895, 0.1487602, -0.4120817, 0.4628387, 0.0701881, 0.2953454, 0.2922255, -0.1363445, 0.2578156, 0.2469286, -0.4124408, -0.2007380, 0.4200920, -0.2883239, -0.1969471, -0.2775554, 0.4777346, 0.2797543, -0.0425267, -0.1017636, -0.0572714, -0.0378768, 0.4997081, 0.5191448, -0.1200838, 0.3383396, -0.3750306, 0.3965981, -0.0883862, 0.0213023, 0.3557682, -0.0867590, 0.3739954, 0.3300236, -0.3700683, -0.4333152, -0.3292595, 0.3352589, -0.5117840, 0.2408730, -0.1365704, -0.2293646, -0.0846374, 0.2800061, -0.2617980, -0.1189032, 0.4096745, 0.3126658, 0.1369583, -0.0903530, 0.4948077, -0.2100882, -0.1089327, -0.2803594, 0.2017792, -0.4551124, -0.2107377, 0.1901529, -0.2145783, -0.2939381, 0.3226644, 0.2778310, 0.1993928, -0.3576527, -0.3485291, 0.1675028, -0.3685694, -0.0016225, 0.0684329, -0.0972829, -0.2494423, 0.3904504, 0.4173161, -0.5105230, 0.1373252, 0.4441873, 0.0253447, -0.1042646, 0.2207943, -0.4813369, -0.1566556, -0.3223718, 0.1656502, -0.1036597, -0.0053781, -0.3406707, 0.0159618, -0.4560514, -0.3323687, -0.0953756, -0.2651761, -0.0411037, -0.1393119, -0.2983885, 0.0198033, 0.0197145, -0.1871237, 0.0557146, 0.3009782, -0.3147708, 0.2889034, 0.2476854, -0.0762411, -0.1858937, -0.1218913, 0.1833426, 0.4865217, -0.1048900, -0.1808712, 0.2202358, 0.2496993, 0.2111294, 0.4636678, -0.0686378, 0.2981997, -0.0677975, 0.3099772, -0.0207162, -0.3231972, -0.2636076, -0.3807254, -0.4272882, 0.4463022, -0.3759178, -0.1758385, -0.3547280, -0.4872174, -0.3203019, 0.4272923, -0.3038202, 0.0340858, -0.3524030, -0.4572145, 0.4365523, 0.3046350, 0.3656707, -0.4218280, 0.0460114, 0.5419047, 0.1786764, -0.2974642, -0.2234959, -0.0944459, 0.0657736, -0.0772026, -0.5089281, 0.3011314, 0.1106337, -0.0958786, 0.0153938, -0.4620738, -0.3693210, -0.0391486, 0.3198634, 0.4023980, -0.3093909, -0.3751483, -0.3717181, -0.2519097, -0.2952016, -0.2028730, 0.1266649, -0.2016153, -0.3335661, 0.4790078, -0.3112542, -0.2903882, -0.2743642, -0.4116948, 0.1503930, 0.0545635, -0.1781605, 0.3186712, 0.2587107, -0.3645451, -0.4353682, 0.4514378, 0.3977573, -0.1295190, 0.1430441, -0.2614467, 0.1466943, -0.0345888, 0.0124570, -0.0530091, 0.4641096, 0.2151226, -0.0667539, -0.3935487, 0.4286129, 0.1161791, 0.0604017, -0.1537145, 0.0819134, -0.2200752, -0.3157662, -0.4704509, -0.5204445, 0.1350698, 0.3015628, -0.2733095, -0.4706077, -0.3362148, -0.4980934, -0.2762911, 0.0426431, 0.0792437, 0.3382948, -0.0896226, 0.3754523, -0.2494940, 0.2915267, -0.0209091, 0.4578070, -0.3361069, 0.3511615, -0.1162335, 0.3849684, 0.3993553, 0.2799833, -0.4760388, -0.3452650, -0.0065535, 0.2544882, 0.4237240, 0.4048058, 0.3479407, 0.5180122, -0.0842787, 0.1075029, -0.4607849, -0.0874843, 0.3738279, 0.2272873, -0.1699826, 0.4601698, -0.0707279, 0.1421079, 0.0378640, 0.5372608, -0.3436210, -0.2875389, -0.5047402, -0.1366674, -0.2381154, 0.3786184, -0.4203420, 0.3615291, -0.1155691, 0.1304129, -0.0711919, -0.0211264, 0.4323724, 0.2440131, 0.5199682, 0.0981128, -0.1284049, 0.4070895, -0.4462533, 0.3903569, -0.3828252, 0.0901677, -0.4463874, -0.1067220, 0.1539693, 0.1990730, -0.2999041, 0.2714590, 0.1019616, 0.3864289, -0.0149266, 0.2393122, -0.3516711, -0.1985132, 0.0957203, -0.0380161, 0.3094122, 0.5581395, -0.1817313, 0.3016566, -0.1449855, 0.2707243, -0.0231467, -0.1329116, -0.0067789, 0.3458265, 0.4630205, -0.3259562, -0.2754001, -0.2599432, -0.1356509, 0.1884507, 0.4606548, -0.1733880, 0.0090019, 0.3144512, -0.0256192, -0.0731041, -0.3849520, -0.2378965, -0.2706990, 0.5038324, -0.2136175, -0.3783360, 0.4201716, -0.2087789, -0.0407385, 0.3827611, -0.4668949, -0.2624840, -0.4187076, -0.1824185, 0.2389771, -0.1461352, 0.4188014, 0.4558648, 0.4921770, 0.2392143, -0.3177243, -0.1007363, 0.1962340, -0.1260980, 0.1389195, 0.1103624, 0.2102415, -0.3732521, 0.0738407, 0.4837761, 0.2535445, 0.1599252, 0.3329368, 0.2028972, -0.0374965, -0.4059098, -0.1514736, -0.1473199, -0.4796523, 0.0622154, -0.0360921, -0.1025928, 0.2666019, -0.4383042, -0.2611268, 0.1180233, -0.5048918, -0.2709623, -0.0039957, -0.4083508, -0.0670627, 0.2531112, 0.2277952, 0.0644313, 0.5478492, 0.2263419, 0.4592658, -0.0338945, -0.2351074, 0.3409670, -0.2738480, 0.0821772, -0.1212313, 0.1579248, 0.1451635, 0.2367577, 0.4926416, 0.4599816, -0.1066266, -0.2896915, 0.1116425, -0.1828401, -0.2782710, -0.1730080, 0.2033388, 0.3753083, -0.3135224, 0.5214705, 0.4491585, 0.2498654, -0.0105336, -0.1291540, -0.3796263, 0.3389454, 0.2063615, -0.3429031, 0.2706403, -0.2371502, 0.2625410, -0.0585916, 0.4186598, -0.1317379, 0.3832260, 0.3045760, 0.3756584, 0.2441435, 0.1845916, -0.1984695, 0.3811968, 0.4318238, 0.3579096, -0.4593341, 0.4219655, 0.1604822, -0.1862958, -0.2221595, 0.0567463, -0.0113388, 0.0438463, 0.1543076, 0.4755089, 0.4334144, -0.1579175, 0.3606366, -0.4529158, -0.1501074, -0.3001098, -0.3629903, 0.0012725, -0.1660829, -0.0826093, -0.4158444, -0.2381108, 0.3465762, 0.4418360, 0.3814539, 0.1939342, -0.3410554, -0.0150312, 0.4522300, -0.2174028, 0.0244974, 0.1270744, -0.1109885, -0.2979195, 0.3413425, -0.3508165, -0.3129494, 0.4061823, 0.4355694, 0.0453928, -0.2319439, 0.3950114, 0.4657964, 0.0853324, 0.3880127, -0.1053090, 0.4543319, -0.1314971, 0.5019092, 0.4066346, -0.2934238, 0.0781592, -0.2804999, -0.4306859, -0.0517979, -0.4679015, 0.0057425, 0.4104139, 0.3277296, -0.1574268, -0.0663140, 0.4556260, 0.4083978, -0.1254506, -0.0236571, 0.1502478, -0.2766513, -0.2999161, 0.2989306, 0.3243631, 0.2054624, -0.4519590, -0.2079036, 0.1473555, 0.0323845, 0.2987996, -0.1345805, -0.4802778, -0.4371152, 0.0956483, 0.1763522, 0.2196863, -0.4416298, 0.0811559, 0.3805423, -0.3075950, -0.3875203, -0.0333776, -0.2425931, 0.2944043, -0.1767779, 0.3137291, -0.3981070, -0.3411645, 0.4318935, 0.3574912, -0.3695406, -0.4402172, -0.0757235, -0.2982796, -0.3961212, -0.0557450, -0.1178491, 0.3917163, 0.3143579, -0.0904035, 0.1793094, 0.0579255, -0.3635251, 0.0074528, 0.0475929, 0.3800890, 0.4805101, -0.2061709, -0.3065439, 0.0257414, 0.3170702, -0.2704010, 0.3937012, 0.1021047, 0.3442523, 0.2411068, -0.0834600, -0.2602998, -0.2711184, 0.1933517, -0.1927900, 0.4682180, 0.2019434, 0.2584673, 0.3006809, -0.0080008, 0.1564406, 0.0844229, -0.1527094, 0.2224085, 0.0725847, 0.2420453, -0.0299973, -0.0981810, 0.0240553, 0.4178758, 0.3763404, 0.4962921, -0.0172496, -0.0560054, 0.2342864, -0.0981765, -0.4622833, -0.5258877, 0.1617037, -0.0466386, -0.3549390, 0.4252216, -0.0240931, -0.3058780, 0.2990865, 0.1139015, 0.3925459, 0.0235404, 0.2103797, 0.4691096, 0.1777623, -0.1037249, 0.4776773, 0.3386745, -0.4272740, 0.0952089, 0.4596095, 0.0379008, -0.3821078, 0.5198146, -0.4680497, -0.0590568, -0.1667445, 0.0996663, -0.0116239, -0.1563594, 0.3357078, -0.3123343, -0.0123887, -0.4161156, 0.1393601, 0.0017705, 0.3038350, 0.1977872, -0.2335137, -0.1770662, -0.1039541, 0.2773085, -0.1602257, 0.1129231, 0.1979102, 0.4351793, 0.5268154, -0.2964822, 0.3789642, -0.1760158, -0.3345916, 0.0343312, 0.1888929, 0.3047621, -0.1349801, 0.2961241, -0.3422311, 0.5910433, 0.0014535, 0.2566482, -0.1560307, 0.1667860, 0.1248903, 0.4183635, -0.0147430, 0.2831693, 0.3357939, -0.2653236, -0.2071788, -0.2175326, -0.2896266, -0.2990821, -0.2730286, 0.3430145, 0.3223165, 0.3380613, -0.3555091, 0.3328333, -0.0525293, 0.3457578, 0.2978432, 0.4119375, 0.3672532, 0.2417426, -0.2620713, 0.3397945, 0.1832508, 0.0310123, 0.0859416, 0.3401891, 0.1671532, -0.1708353, -0.3959549, -0.2352832, 0.4238422, -0.0144286, -0.2037239, -0.4325596, 0.4053445, -0.2185490, 0.2582524, -0.2031237, 0.1360705, -0.1289649, -0.0008626, 0.2303927, 0.3556656, 0.3711616, 0.4714282, 0.3002537, 0.1934329, 0.6585901, 0.1589374, 0.2633293, 0.5041462, -0.1354199, 0.0217199, -0.3273396, -0.1966880, -0.1087910, 0.3827423, 0.2198631, 0.4453150, 0.2461063, 0.5385689, 0.1799079, 0.2377410, 0.4164569, 0.0319727, 0.2244389, -0.2364835, -0.2109812, -0.3808234, -0.0376302, 0.1094906, 0.0212095, -0.5425416, 0.5110669, -0.0671755, 0.1399389, -0.4852151, -0.3504983, -0.2365094, -0.2457965, -0.0028783, -0.2161313, 0.3999833, -0.3950908, 0.2748725, 0.3906122, -0.0693692, 0.1834420, 0.0651432, -0.2362316, 0.0988652, -0.2276245, -0.2582523, -0.4832953, 0.1945505, -0.1207169, -0.4494832, 0.3058777, -0.0182004, -0.3003587, -0.0962216, 0.3917176, -0.2065272, -0.2380434, -0.0348844, -0.1553365, 0.0888026, -0.3638694, 0.4282282, -0.1344884, 0.3779252, -0.2145991, -0.3536429, 0.0621263, -0.2948184, 0.3260874, -0.0942249, 0.2366389, -0.4051067, -0.3490981, -0.2487668, 0.0910311, 0.1413724, -0.2700457, -0.3611994, 0.2093654, -0.3895007, 0.1324079, -0.2586285, -0.2341615, 0.2205484, -0.3549591, -0.3968173, 0.2297330, -0.6044530, -0.0032883, -0.1838694, 0.0050953, 0.3263676, 0.2967390, 0.3248900, -0.3692384, -0.4090780, -0.2994132, 0.0568423, -0.3045583, -0.2807620, -0.4164284, -0.2277311, -0.5078743, 0.2053294, 0.3915625, 0.3688972, 0.1008359, -0.0089463, 0.0467640, 0.2472944, -0.2998548, 0.0964992, -0.1076953, -0.1271458, -0.4425709, 0.1730945, -0.4552099, 0.2432648, 0.0045772, 0.4033408, -0.4780813, 0.2100751, 0.3061573, -0.2451561, -0.1652402, -0.2033132, 0.3108728, -0.4991467, -0.2280774, 0.5145600, 0.0343471, 0.3500694, -0.1521887, 0.0883634, 0.2576715, -0.0413323, 0.1137147, 0.5040720, 0.4813316, -0.0761308, -0.1737233, 0.3347860, 0.2638700, 0.1885943, -0.0322281, -0.1920082, 0.1391206, 0.0379438, 0.2706904, -0.2317353, 0.4009600, -0.0201498, 0.1932095, 0.0090194, 0.0461725, 0.3196670, 0.0998054, 0.0544782, 0.0288663, -0.3678651, -0.3182683, -0.1084681, 0.3405032, -0.2630809, -0.1380461, -0.3088306, 0.1528736, -0.0451551, -0.3298559, -0.3865183, 0.0730205, -0.1919868, 0.4487856, -0.1182502, 0.0041716, 0.3836803, 0.2856128, -0.3419002, 0.1654779, 0.2913050, -0.1692968, -0.0149379, 0.1442686, -0.1614697, 0.5209677, 0.2745799, -0.1318053, 0.2956743, -0.2635820, 0.3064660, 0.1199248, -0.1939948, -0.3465284, -0.3035752, -0.3289787, 0.0818344, -0.1657788, -0.3039590, -0.2963009, -0.3707054, -0.3968793, 0.3163511, -0.1088648, -0.1507014, -0.3133322, -0.0423091, 0.0444489, 0.0230388, 0.0888985, 0.2409932, 0.0572380, 0.1819516, -0.2133888, -0.2237537, 0.4312935, -0.3794479, 0.4268050, 0.3067297, -0.0379094, 0.4823657, 0.3354614, 0.3662106, -0.5787369, -0.3717490, -0.0233807, -0.3131203, -0.3588515, -0.3769618, -0.1865615, -0.3139835, -0.0313857, -0.1395827, -0.0014930, 0.4005072, -0.0493705, -0.0473675, 0.4421200, 0.0014952, 0.2795971, -0.4441139, 0.4095481, -0.3863282, 0.0263527, -0.2701472, 0.2698226, -0.0685833, 0.1158845, 0.2790156, 0.2858466, 0.2884650, 0.3110618, 0.4329667, 0.4964813, -0.3877480, 0.0008579, 0.1728364, -0.0914999, -0.3865470, 0.2871415, -0.2712443, -0.4724766, 0.3542741, 0.0516634, -0.1442491, -0.3162046, 0.5022910, -0.4414492, 0.2747892, -0.3437069, -0.0814074, -0.3963841, -0.3854316, -0.1462433, -0.2020936, -0.0601618, -0.3699969, 0.1226199, 0.3738643, -0.5150084, 0.4659442, 0.5393920, -0.4940783, -0.1599223, 0.1446889, -0.1592128, 0.2599151, 0.1129722, 0.4137467, -0.5141991, -0.0737234, 0.3695939, 0.4320564, -0.0173777, -0.3905676, 0.2459527, 0.2953393, 0.5217498, 0.0974477, -0.2657121, -0.4564518, 0.0328079, 0.1383082, -0.0937243, 0.3953403, -0.4341498, -0.1393734, 0.2946665, 0.3677240, 0.3616640, 0.0766731, 0.3662167, 0.0013954, -0.1599153, 0.1861904, -0.4405707, 0.0551869, 0.3459532, 0.1764642, 0.1638001, -0.2830531, 0.0315992, 0.3316792, 0.4573507, -0.0745807, -0.1610515, 0.1194738, -0.1636994, 0.3195985, -0.4778727, 0.4783768, 0.1351072, 0.0276127, -0.4638485, -0.4081129, 0.1069314, -0.1544832, 0.1405955, 0.1740690, 0.3990487, -0.1263592, 0.0018784, -0.1764194, -0.3279553, 0.2001335, -0.3615092, -0.4396501, -0.3717090, -0.4124642, -0.0711656, -0.1722151, 0.0463309, -0.4722341, 0.4032942, 0.4026900, -0.1450938, -0.0423371, 0.1887719, -0.3504197, 0.0747710, -0.0222152, 0.0830799, -0.0666416, 0.4030277, -0.0213811, 0.0921436, 0.4682967, -0.1423590, 0.1308694, -0.1343468, 0.0668572, -0.0320186, -0.0838112, -0.0214661, 0.3410389, -0.1712289, 0.4312682, -0.2576756, -0.4779095, 0.1571538, -0.2223163, 0.2708981, -0.0229171, -0.0879519, 0.0535414, 0.3498263, 0.0454195, 0.1749460, 0.3977470, -0.0149230, -0.4164548, 0.2013616, 0.4903376, -0.4578169, -0.1649177, 0.2530665, 0.3104655, -0.1966613, 0.1330586, 0.2427956, -0.3544769, 0.4578826, 0.3682362, -0.1997793, -0.3909804, 0.1720675, 0.2722289, 0.3237977, -0.4074911, -0.4075087, 0.1833596, -0.0348595, -0.2503720, 0.1430162, 0.2869240, 0.4250278, 0.4273371, 0.2590330, 0.1627796, 0.1587648, -0.3078444, -0.3585047, 0.1911641, 0.4461926, -0.2564455, 0.0898833, 0.3234792, 0.2812723, 0.5412891, -0.2389141, -0.4093656, 0.1085422, -0.4591197, 0.2748257, 0.1550447, 0.2061228, -0.3429232, -0.0229543, -0.1731876, -0.0290104, -0.2530125, 0.2718364, -0.1512933, -0.4448884, -0.3506755, -0.1825738, 0.1533974, 0.1598348, 0.2903314, 0.1111048, -0.0288403, 0.4285566, 0.1675134, -0.3973563, -0.1494151, 0.1804694, 0.3445675, -0.2224271, 0.0025841, -0.2294757, -0.1624653, -0.1620733, -0.0562520, -0.3232843, -0.0774924, -0.3058138, 0.2439204, -0.0415187, 0.4444637, -0.1397499, 0.1729488, 0.4821172, 0.3621125, 0.0700238, -0.2718794, 0.4836089, 0.0274764, 0.4511953, 0.3111574, -0.1998442, 0.1802482, 0.1959419, 0.2159658, -0.2612615, -0.4909343, -0.1953411, 0.3171921, 0.2925939, -0.3499452, -0.4228672, -0.3359142, -0.3974403, -0.3386105, 0.3327376, 0.2749163, 0.3826296, 0.0632394, 0.3979143, 0.4451307, 0.0006355, 0.4434177, -0.1178079, -0.2228875, -0.1491989, 0.3892730, -0.3407868, 0.4368817, 0.1530147, -0.1821143, -0.1292477, -0.2495225, 0.0187578, -0.1579083, -0.1351955, -0.0428109, -0.3613033, -0.4437747, 0.0565710, 0.1483526, 0.4470098, 0.2814987, -0.0698220, 0.1314185, -0.2458973, -0.3505140, -0.0449667, -0.0626493, 0.1005046, -0.1615755, 0.4117191, 0.4331499, 0.0086930, 0.4569956, 0.4376257, 0.3739881, 0.2416130, -0.1203818, -0.3086978, -0.2474348, -0.0266574, 0.4674993, -0.4389292, -0.0679229, 0.4045101, 0.3913522, -0.1946366, 0.2141789, 0.4242771, 0.1916701, 0.0501283, 0.2583593, -0.0182297, -0.3141123, 0.4557083, 0.0642668, -0.0471469, -0.2921256, 0.0622942, -0.3483593, 0.4849819, -0.3518901, 0.4484333, 0.3658082, 0.1867126, -0.4062653, 0.1175654, 0.4711533, -0.2710253, -0.3836925, 0.2649472, -0.1365474, -0.0238169, -0.4444483, 0.3859609, 0.2783791, 0.0611824, -0.1779572, 0.4511999, -0.2997423, -0.4225268, 0.0573556, -0.5003151, -0.0744949, -0.1517806, 0.3144185, -0.4323936, 0.1802734, 0.2154972, -0.1347964, -0.3096244, 0.4592071, 0.0954589, 0.3523918, 0.0504283, -0.0659075, 0.0758358, 0.2053962, -0.3887403, -0.1176120, -0.1787125, 0.0032706, -0.1665272, 0.4042437, 0.2434349, -0.4653397, -0.1160821, -0.3653766, -0.1863593, 0.2363653, -0.3416457, -0.2833367, -0.1092170, -0.1309935, -0.1154501, -0.2631918, -0.4363076, -0.4629827, 0.0498165, 0.3822173, 0.4790767, -0.1649265, 0.0660370, -0.4403620, 0.0976855, 0.2851522, 0.3497525, -0.4668122, -0.3747162, 0.1776053, 0.1852715, -0.2654794, 0.2116736, -0.3119499, -0.0436951, -0.0470242, 0.0350726, -0.0340843, -0.1149705, 0.1354718, 0.4092534, -0.4512574, -0.1825102, -0.0341472, -0.1112521, -0.2118863, -0.5219169, -0.3840746, 0.3127409, -0.4434384, 0.2346012, -0.2223456, 0.4469034, 0.3274432, 0.2814340, -0.3012587, 0.3043227, 0.3166058, -0.0210527, -0.2997678, -0.4760933, -0.2911545, 0.2995259, 0.2450806, 0.1787551, 0.4565575, 0.0275389, -0.1322900, -0.0786683, -0.2784281, -0.4263091, 0.2242627, 0.1201238, 0.0350994, 0.4571963, -0.3966154, -0.0705092, 0.4273846, 0.4000773, 0.2884301, -0.2791049, 0.0837457, -0.3442049, 0.1659636, 0.2845010, -0.0741644, -0.4091582, -0.4653224, -0.1254052, -0.3226630, -0.4076429, -0.0838671, -0.1367081, 0.0446821, 0.0558089, 0.1348725, 0.0098143, 0.2086592, -0.1466097, -0.4094234, -0.0687167, -0.2768186, 0.3402350, -0.1003789, 0.1712618, 0.1694851, -0.2428735, 0.2918495, -0.0887338, -0.1190246, 0.3422226, 0.2357265, 0.0384762, -0.3504429, 0.1593012, 0.0895720, -0.3214858, 0.2180030, 0.0994030, 0.4439643, -0.0879901, 0.3277069, 0.4963544, 0.4143601, 0.2515871, -0.0542570, 0.1690110, 0.0010893, 0.3344862, -0.3169357, -0.0527736, 0.3726471, -0.3504942, -0.3347199, 0.1216756, 0.0122309, -0.3604444, 0.2249397, 0.3567613, 0.4187283, 0.4624780, 0.0496837, 0.0576436, 0.4638776, 0.2460857, -0.4344972, -0.2902787, 0.0793301, 0.1656865, -0.3990404, 0.3415122, -0.0076942, 0.3986655, -0.1922663, -0.2189247, -0.3848835, 0.3877568, -0.3755139, 0.0958552, -0.1793452, 0.0983524, -0.1152284, 0.3739605, 0.0998948, 0.0055540, 0.0914723, -0.4668277, 0.1722839, -0.0121161, -0.2858941, 0.0788199, 0.1041083, 0.2233464, -0.4645850, 0.1330680, 0.0142419, 0.3859373, 0.2866786, 0.3604585, 0.4375364, 0.4285848, 0.4294515, 0.4452949, 0.0494448, -0.3556814, -0.4098247, -0.0031932, -0.1966636, 0.3313083, 0.0586927, -0.0925432, -0.0819457, -0.3744462, 0.0643766, -0.3518424, 0.3593096, -0.1603530, 0.2599939, -0.2047340, 0.1573269, -0.3407495, 0.2897146, 0.1741422, -0.1125933, 0.1070476, 0.0675615, -0.3627678, -0.3859512, 0.3947014, -0.4797065, -0.0813571, -0.2064433, -0.3436833, 0.3904199, 0.0985160, 0.1991866, -0.1829641, -0.3676104, 0.3596536, -0.2904343, -0.4926918, 0.3160219, 0.1371970, 0.0955543, -0.1740251, 0.0261908, -0.3716698, -0.1812621, -0.2451941, -0.0975213, 0.1718514, 0.2403271, -0.1209533, -0.0423884, -0.2157009, -0.4451619, 0.3819884, -0.1822766, 0.2710059, -0.3417020, 0.3226604, 0.2528036, 0.0743922, -0.3040577, -0.1684076, -0.3059407, -0.1075368, -0.2887725, 0.0162667, -0.1314322, -0.0774604, 0.2888750, -0.4161233, 0.2133509, 0.3766255, 0.1733258, 0.3418403, -0.2692157, 0.1531207, 0.3980049, -0.2260191, -0.1977054, -0.0346201, 0.1545757, 0.1764374, -0.2029959, 0.4676850, -0.3966053, -0.3667901, -0.4238721, -0.3415383, -0.4225489, -0.4340055, 0.0002150, 0.3739849, -0.4668053, 0.4694163, -0.5147124, 0.1689609, -0.1561178, 0.0578936, 0.4223603, -0.5014191, -0.2419897, 0.1370865, -0.2106563, -0.0425543, -0.2380940, -0.4479305, 0.0149477, -0.2773127, 0.1170194, -0.1620418, -0.1848501, 0.3602093, 0.1960219, -0.0690454, 0.2878778, 0.1511275, 0.3274725, 0.1588521, -0.1381726, 0.0421948, -0.0387990, 0.3107129, -0.3325492, 0.3856212, -0.3004750, 0.2189495, 0.3932881, 0.0191210, -0.0640685, -0.2800955, -0.1147831, -0.2201566, -0.3122739, 0.3639382, -0.3466320, 0.2655998, -0.0106142, -0.3781812, 0.3360286, -0.4610219, -0.3943168, -0.1841357, -0.4191247, -0.3392489, -0.0969662, -0.1787042, -0.4319935, -0.3558877, 0.4727319, 0.4095804, 0.0712828, 0.2348865, 0.0837928, -0.0634500, -0.1848300, -0.0036054, 0.3662992, 0.5007065, -0.1060469, 0.0983749, 0.1376744, 0.3264647, -0.0897413, -0.1404429, 0.0389927, 0.1914701, -0.4643804, -0.4797750, -0.2177200, 0.0440222, -0.0279427, -0.2222802, -0.1801186, -0.3503335, 0.2912365, 0.4072114, -0.0490032, 0.3290033, -0.4198654, -0.1411477, 0.4564288, 0.2293028, -0.2842081, 0.4149888, 0.3306004, 0.4655318, -0.4381338, -0.3539192, 0.3638403, 0.3955860, 0.3214650, -0.3653831, 0.4396217, 0.1317801, 0.0229090, -0.4128273, 0.3428345, 0.3171741, -0.0670995, -0.4618773, -0.0314537, 0.3473746, 0.3609439, 0.3699807, -0.0390688, 0.2914806, -0.0068435, 0.3492966, -0.0165215, 0.2489408, 0.1044378, 0.3880516, 0.4684596, -0.3251029, -0.2152463, 0.0939004, -0.4344756, -0.2338875, 0.2714792, 0.3430848, 0.2828994, 0.2564000, -0.2584388, 0.2575787, -0.0682094, -0.4151032, 0.4274653, -0.4494859, -0.4315975, -0.4198293, -0.0283710, 0.4492091, 0.2899604, 0.1831599, -0.3466727, 0.0402102, -0.0484503, 0.3349111, 0.0763032, 0.0782436, -0.3346381, -0.0297072, 0.0165229, 0.4700323, -0.0602225, 0.3183537, -0.2048821, 0.2116360, -0.2676859, 0.0969517, -0.0113696, 0.0130406, 0.3481493, -0.0451619, -0.2828982, -0.0693640, -0.2943908, -0.4608449, -0.3857401, 0.0036004, 0.2824929, 0.2476066, -0.2287107, -0.4839370, -0.3879147, -0.4368263, -0.1004623, -0.1943487, 0.0624822, 0.1666631, -0.0509296, -0.2699965, 0.4155203, 0.2590062, 0.0317405, 0.1584887, -0.0957381, 0.0935929, -0.0100990, 0.1902743, -0.5180478, -0.3815154, 0.2983887, -0.2590614, 0.1709694, 0.3722456, 0.5093970, 0.2811523, -0.4333795, -0.4384314, -0.0624171, -0.4470261, -0.0217727, -0.4970050, -0.2629493, 0.2723485, -0.1888718, 0.1433384, 0.4653150, 0.0336299, -0.1005483, 0.2917006, -0.4634608, 0.2793379, 0.4663599, 0.0270464, -0.2727978, -0.0534261, 0.0493785, -0.1682030, 0.1884827, 0.0560589, -0.3912003, -0.3423373, -0.3593618, 0.1398838, -0.1197618, 0.4170453, 0.4877097, -0.5046239, -0.1336878, 0.3691074, 0.0793077, 0.4564133, -0.0102635, 0.2386321, 0.0810699, 0.2175507, -0.2697845, 0.4629300, -0.4870706, -0.3586648, -0.3654819, -0.2195592, -0.4463796, -0.2892511, -0.3297654, -0.0283043, -0.4423642, -0.3503615, 0.4198745, 0.0760449, -0.3495037, -0.3018434, 0.1656812, 0.2745976, -0.0510796, -0.2523025, -0.2633889, -0.1417549, -0.1895037, 0.0306409, 0.2280835, 0.4898044, 0.5328370, 0.1524732, 0.3821513, -0.2055740, 0.4093322, -0.5310929, 0.4787993, 0.5044149, -0.3033433, -0.0392524, -0.0197804, 0.0734492, -0.4083473, 0.3212008, 0.5233642, 0.0664597, 0.4135561, -0.0007927, 0.1492900, -0.0363966, 0.5171629, 0.4494085, 0.1313966, 0.1546000, -0.4082486, 0.0620683, 0.1813073, -0.3643186, -0.2513607, -0.2797717, -0.5048018, -0.0748686, -0.3067041, -0.0173829, 0.3856782, 0.0914310, -0.1735240, 0.3957008, 0.1122392, 0.1354615, -0.1910661, -0.0273105, 0.3534386, -0.1514531, -0.5080892, -0.4282124, -0.2926530, 0.1190518, -0.2239663, 0.1646263, -0.4849499, -0.3019100, -0.3644455, 0.0996723, 0.0953387, 0.3177264, 0.0323849, -0.0515985, 0.0404260, 0.1341330, -0.1588878, 0.1562691, 0.0336105, -0.2549826, -0.3572710, 0.3232447, 0.0948615, -0.0994406, 0.2917368, -0.2642195, 0.4357649, -0.3681850, -0.0999484, -0.0538583, 0.0809361, -0.4345219, -0.0676375, -0.4429222, -0.1862309, 0.3393477, 0.3571949, 0.3817840, 0.1483180, -0.4031195, -0.3568722, -0.2027863, -0.3652636, 0.3305280, 0.4603747, 0.3060400, 0.4888576, 0.1997911, 0.2339380, 0.3513046, -0.1291741, -0.1681949, -0.1485255, -0.3028695, -0.2438862, -0.2679430, 0.0470449, -0.4269559, -0.3131474, 0.2805429, -0.4505267, 0.0889481, 0.0125968, -0.3261987, -0.5002466, 0.3133827, -0.4680470, 0.2747411, 0.1576013, 0.0996568, -0.2638341, 0.4285704, -0.4474110, -0.1675872, -0.3499407, -0.3871245, -0.4413406, -0.1781712, 0.0066375, -0.1902504, -0.1878116, 0.4293480, -0.3032173, 0.0678376, 0.3174243, -0.3803897, -0.4408074, -0.2525907, -0.3937684, 0.0142357, -0.0665044, -0.1401591, 0.1401558, -0.0298966, 0.2147982, 0.0497192, -0.4494901, -0.3059745, -0.2042923, 0.1106656, 0.1877612, 0.4458614, 0.1097919, 0.3138799, 0.3225858, 0.1195233, -0.0236905, 0.1885415, 0.3269097, 0.3763252, -0.0708338, -0.3727906, -0.2529842, 0.0209632, -0.1486110, 0.3894683, -0.3891928, 0.3765492, 0.3391830, -0.0737408, 0.3881579, -0.1214067, -0.0137463, 0.4247233, 0.0282008, 0.0682705, 0.3881034, -0.1600934, -0.5054853, -0.3286224, 0.2301028, 0.3002104, 0.2909313, 0.0389468, -0.3844396, -0.3918420, -0.1948987, -0.2270931, -0.2701856, 0.2261767, 0.3230514, -0.1926786, 0.3379344, 0.0524213, -0.3569699, -0.0251762, -0.5065739, 0.4494284, -0.1859311, 0.1142224, 0.4967539, -0.1421760, -0.3391522, 0.4311498, -0.3392776, 0.1269891, 0.5300759, 0.3902605, -0.1438127, 0.3294749, -0.2827215, -0.2137908, -0.1850933, 0.3863968, 0.1411886, -0.0563467, 0.1132857, -0.1541995, 0.3286338, -0.4090489, 0.3543339, 0.2760068, 0.0037758, 0.0215287, 0.1069760, -0.1382438, -0.3154371, -0.2625358, 0.4516716, -0.4660417, 0.2542481, 0.4974071, 0.1820898, -0.1424893, -0.1104777, 0.0048137, 0.0242107, 0.1405537, 0.3239337, -0.2749120, -0.0409062, 0.4475206, -0.3509649, -0.0377877, 0.3015465, -0.4649331, 0.3217410, -0.3539008, 0.2233359, -0.1530482, -0.3111499, -0.0131934, -0.1108720, 0.0401111, -0.1026842, -0.1553282, -0.0513785, -0.4196431, 0.3382993, -0.3946572, -0.0455869, -0.2909884, 0.1050054, 0.3726328, -0.2056447, 0.1339678, 0.2742022, 0.2600913, -0.1942881, 0.1049923, 0.5031337, -0.2951046, -0.2273213, 0.3191450, 0.3632532, -0.4690726, -0.3474112, 0.0208150, -0.0945293, 0.3890433, -0.3777862, 0.3553730, 0.0350016, 0.1741858, 0.2099801, -0.2673313, -0.1495448, -0.3293046, -0.5291587, -0.2314546, -0.1338731, -0.2702028, -0.2037447, -0.2881859, -0.1334399, -0.0586343, 0.4707377, -0.1140286, -0.1119774, 0.1228883, -0.1069640, -0.0533381, 0.0655141, 0.3385807, 0.3149649, 0.0775821, 0.2628091, 0.0953020, -0.0629568, 0.2344638, 0.3678658, -0.3180286, 0.1306667, -0.3372346, -0.2593274, 0.3974142, 0.3123251, 0.2726921, -0.0195295, 0.0876608, 0.4765228, -0.0148438, -0.0948605, -0.3951603, -0.2183509, 0.0685524, -0.2914169, -0.3272364, -0.2759809, 0.4384493, -0.3184651, -0.2910011, 0.4239581, 0.0715606, 0.3107312, -0.4763866, -0.1634443, -0.3079456, 0.3814291, 0.4280730, 0.0502052, 0.2600192, -0.0167088, 0.1390367, -0.3209055, 0.3037738, -0.1129283, -0.2852743, -0.3547100, 0.3945206, -0.0867876, 0.0968129, -0.3732243, 0.3053951, 0.3039342, -0.3179201, -0.2466345, 0.0830218, 0.3171491, 0.4666178, 0.0974258, 0.0173424, 0.1767159, 0.0429069, -0.0516937, 0.3604751, -0.0871995, 0.3623504, 0.0980826, -0.1091614, -0.3026886, -0.2865461, -0.1788656, 0.5142637, 0.4245708, 0.1587670, -0.0429924, -0.4986576, 0.0690580, -0.4029913, -0.2123141, -0.3709658, 0.3609309, 0.3953299, 0.1916816, 0.2357371, -0.0718830, -0.0449568, 0.3391818, -0.1698343, -0.0952623, 0.1757333, 0.2497199, 0.2894651, 0.1077223, 0.4057363, -0.2197404, -0.0610049, 0.1427125, -0.4091858, -0.2286725, -0.2973524, -0.4742722, -0.4404626, -0.1435553, -0.4034812, 0.2810224, 0.2906195, 0.1374281, -0.0785886, -0.2259125, -0.2261259, -0.3430693, -0.2898423, -0.3471864, 0.2407712, 0.2163662, 0.2479301, -0.3209572, 0.2937943, -0.2297828, -0.1151503, -0.3075027, 0.0384012, -0.0358949, -0.0192028, -0.1653403, -0.2863455, -0.2523807, -0.4299790, 0.0389009, -0.4964072, 0.4131812, 0.5404224, 0.4388162, 0.3579300, 0.0194146, -0.4908986, 0.1236283, -0.3131865, 0.3333050, 0.0531285, -0.0413807, 0.0210074, -0.4590218, -0.3857498, -0.0388990, -0.2817103, 0.1055421, 0.0585342, 0.4166787, 0.0530490, 0.3767001, -0.2346722, -0.0371871, 0.3478712, -0.1834633, -0.5060896, 0.0645152, 0.1023049, -0.4254019, -0.0194041, -0.0543257, -0.2946097, -0.0401678, 0.1848402, 0.3462442, -0.3442470, -0.1054699, -0.0781649, -0.4440810, -0.3324725, 0.2729015, -0.0719254, 0.2174373, -0.0620569, -0.2653778, -0.3842591, -0.2773819, -0.0939324, 0.1129638, 0.1118363, -0.0025203, -0.0916656, 0.0319567, 0.4129158, 0.3567742, 0.1020487, -0.3488016, 0.0641660, -0.3654145, -0.2687109, 0.3675098, -0.3441620, 0.2358201, -0.1247925, -0.0983821, 0.4778224, 0.2206357, -0.1202911, 0.4006612, 0.2511793, -0.3630241, -0.3949006, -0.2819807, -0.2165340, -0.2622400, 0.2192837, -0.4530360, -0.1241528, -0.2575259, 0.0211865, -0.0211726, 0.3428639, 0.2556784, -0.3285834, 0.0592924, -0.4621293, 0.3207274, -0.2273113, 0.1611079, -0.3875441, -0.2088893, 0.4334407, -0.3610453, 0.1418695, 0.0261301, -0.3976017, -0.0526108, 0.3255463, 0.3668297, -0.4236193, -0.0323162, -0.1872929, -0.1621558, -0.0628865, 0.0434408, -0.0175781, -0.3551043, 0.2868145, 0.2988633, 0.1409518, 0.3086891, 0.2031581, -0.0801451, -0.2754014, 0.4224751, 0.1167547, 0.2272106, 0.0143621, 0.3226018, 0.1477446, -0.1784409, 0.2746718, -0.1710225, 0.4442635, 0.4595284, 0.4536858, 0.2895486, 0.5453516, 0.0269276, -0.4734530, 0.3690383, 0.1118785, 0.0839898, -0.1369854, 0.3057573, 0.2048109, 0.3143415, 0.0472677, 0.2188373, 0.3535017, -0.2403452, 0.4598946, -0.1623764, 0.2197600, -0.0561271, 0.0581006, -0.0556064, 0.0242312, -0.4909705, -0.2169984, 0.2092803, -0.3961138, 0.1173642, -0.3913333, 0.2638610, -0.1158934, 0.4029911, -0.2718914, -0.2137417, -0.0970269, 0.3243566, -0.4095421, 0.3158880, -0.0525434, 0.1160659, 0.3005283, -0.4457728, 0.0788545, 0.1992336, 0.1328457, 0.0416416, -0.5036518, 0.2676208, 0.1795707, -0.3515612, -0.0595747, 0.4349380, 0.0650692, 0.3416229, -0.3541281, -0.1060289, -0.1653586, 0.2160216, 0.1880031, 0.3533523, -0.0540380, 0.3914268, 0.2277276, 0.4381097, -0.0963812, 0.0250400, -0.3658556, -0.3009289, 0.3900077, -0.0706439, -0.3921691, -0.0390805, -0.1240501, 0.0582360, -0.1592828, -0.4440530, 0.0863157, 0.3644564, 0.3093993, -0.4247870, 0.3821149, -0.4623294, -0.1448160, -0.1846806, 0.2719676, 0.2430867, 0.2111185, -0.2461206, -0.1012384, 0.0057164, 0.1002188, -0.0011765, 0.1445316, 0.4616072, 0.1456357, 0.1468940, -0.2663383, -0.3596638, -0.2903897, 0.0790970, -0.1219289, -0.1609220, -0.0476354, 0.0204887, -0.2201922, -0.1829519, 0.0187884, 0.4366469, -0.3578412, 0.4280978, 0.3325516, 0.4626540, 0.3466384, -0.2125715, 0.1061590, -0.1714991, 0.0939295, 0.0060235, 0.3213207, -0.2794401, 0.5310923, 0.3746693, 0.0777981, -0.3221069, -0.0422004, -0.2531615, 0.0766473, 0.3807348, 0.4293766, 0.3053968, -0.3244082, -0.1580146, -0.2408646, 0.1483410, 0.2300782, -0.2561290, 0.1413982, 0.3886188, 0.0035967, -0.1902515, -0.0693232, 0.0602514, -0.2155153, 0.1014041, -0.1710355, 0.1553435, -0.2283321, 0.2598433, -0.0849954, 0.0631295, -0.1396939, -0.1629630, -0.4603893, -0.1702797, 0.3297970, -0.0938324, 0.0691853, 0.3487740, 0.3596814, -0.2804252, -0.1520301, -0.1581551, -0.5060450, -0.5081966, 0.0041772, -0.3108220, -0.1089770, -0.0713398, -0.4615095, -0.0746289, -0.1235554, 0.4155622, -0.3794436, 0.3712589, 0.0355577, -0.1403056, 0.1524769, -0.0251260, 0.4965782, 0.2275578, -0.1987416, -0.3886270, 0.2860364, -0.0690460, -0.3571893, 0.0450029, -0.3347568, -0.1684125, -0.3182362, 0.4238584, 0.2834516, -0.4575238, -0.1158060, -0.4268405, -0.2114380, 0.1513316, -0.3621917, 0.3302669, 0.0469406, -0.2257916, -0.1384351, -0.3619995, -0.4062827, 0.2436150, 0.0874464, 0.4103027, 0.0104153, -0.1513234, -0.3723063, -0.2000892, -0.1779068, -0.0094284, 0.0348926, -0.1204589, 0.0118298, 0.4133275, -0.3886158, 0.0632224, 0.2544159, 0.3692192, -0.2453380, 0.0077677, -0.3350239, 0.1924253, 0.2906438, 0.2533938, -0.0482607, -0.3970590, 0.3133097, -0.3257691, -0.4277074, 0.3426602, 0.2559781, 0.0656061, -0.3064686, 0.3835420, 0.1350209, 0.0570783, 0.1427691, -0.3207953, 0.0408578, -0.1843389, 0.3464326, -0.4500979, -0.4624677, 0.0567708, 0.1413432, -0.1544593, 0.2594377, 0.0957887, -0.1632185, 0.2041311, 0.0543353, -0.3628796, -0.1965435, -0.3839479, -0.1614739, -0.0730994, -0.3767942, 0.3056608, 0.0396887, -0.3677388, 0.2130303, 0.4912868, 0.3874379, -0.2501822, -0.4085366, 0.4407039, -0.1854548, 0.2259224, 0.3622459, 0.1841017, -0.4702177, -0.3724778, 0.2179510, -0.1823381, 0.2939207, 0.2240425, -0.0017890, 0.3697207, 0.1490767, 0.1297389, -0.0934381, 0.3404719, 0.4368904, 0.1654561, -0.0652514, -0.3463066, -0.3215937, 0.4501985, -0.1510405, -0.1877523, -0.1637254, -0.1798202, -0.1485593, 0.2741042, 0.3472944, -0.1090165, -0.4153343, 0.0634133, 0.3325077, 0.2400331, 0.1251072, -0.3175198, -0.1342166, 0.2421593, -0.0567796, -0.2085551, -0.2900600, -0.4820380, 0.4515790, -0.3831948, -0.0509053, -0.4502608, 0.0734084, 0.2560942, 0.4447917, -0.5107674, 0.4321225, 0.3331999, -0.1008370, 0.2666438, -0.3211195, 0.4810497, -0.4302255, -0.0256029, -0.0079238, -0.1027668, 0.3530556, -0.1374460, 0.0856740, -0.1476373, 0.2749829, -0.1336864, -0.3381657, 0.2849868, 0.1913842, 0.4482706, 0.2379775, 0.2444535, 0.1564186, -0.2431633, 0.2321738, 0.4417348, 0.4235270, -0.4276756, 0.2784588, -0.1396024, -0.4021289, 0.3644423, 0.3787760, 0.3193358, -0.4761681, -0.3598910, 0.4928080, -0.0246366, 0.4072148, -0.4568489, 0.1363468, 0.3821699, 0.5359344, 0.4887869, 0.4649657, 0.1521912, 0.4817370, 0.2979603, -0.2258491, -0.2227189, -0.0013872, -0.2629726, 0.2540894, 0.2533683, -0.2054011, 0.3389226, -0.4606223, 0.2726502, -0.2952626, -0.4066655, -0.3283450, 0.3376123, 0.3916690, -0.4013663, -0.4012862, -0.0819554, -0.1620409, -0.2250726, -0.2669229, 0.2146431, -0.4194059, 0.1427210, -0.2293022, 0.0411841, -0.2688734, 0.0176316, 0.4882003, 0.0415115, 0.1260156, 0.4634889, -0.0597688, -0.0060478, 0.3765170, 0.3874407, 0.4051760, -0.2243905, -0.1607801, -0.0027341, -0.2126724, -0.2453052, 0.4983306, -0.1908571, -0.1475157, -0.0741555, 0.2800146, -0.0727634, 0.3673513, -0.1670318, 0.4041698, -0.4375665, -0.0480464, 0.4073709, -0.0794367, -0.2248989, 0.4382029, 0.0550158, 0.2829248, 0.3828615, -0.3346249, -0.3571531, 0.1985503, 0.0324315, -0.3281171, 0.0890098, -0.3102546, 0.0698874, 0.1585426, -0.0109856, -0.3743432, 0.4700594, 0.4366350, 0.3218874, -0.1974580, -0.4261191, -0.2583394, 0.1292306, -0.2512192, -0.1965823, -0.0515246, 0.4269949, 0.0356903, 0.4132082, -0.2036079, -0.3974251, -0.0715382, 0.2702032, -0.2606132, 0.1092337, -0.5137436, -0.4108086, -0.2610225, 0.2055298, -0.2893292, -0.0988964, 0.0278372, 0.3330412, -0.2396626, -0.5090424, 0.2981358, 0.0962220, 0.4428315, -0.4588890, -0.4383835, 0.2466457, -0.2988679, -0.1986068, 0.4867112, -0.2520821, 0.2533416, -0.0768600, 0.3880039, -0.0986000, -0.2794885, -0.2286896, -0.1584159, -0.3668027, 0.2280303, 0.5274264, 0.5013776, -0.2614656, -0.1775927, 0.4178244, 0.3210846, -0.2964536, 0.1956738, -0.3996947, 0.4453390, 0.1298238, 0.0312320, -0.2928068, -0.2134857, -0.4684253, 0.4749368, -0.2448870, 0.3865135, 0.1974982, -0.0063684, 0.1553800, -0.0337850, 0.4276575, -0.4419267, -0.3622345, -0.3353337, 0.3505346, -0.3054018, -0.0938879, -0.4583735, -0.3587768, -0.2055770, 0.2034989, 0.3349770, -0.2460754, -0.0900589, -0.4340272, -0.4481006, 0.0096145, 0.3514943, 0.2433523, 0.2852099, -0.4228789, 0.0177196, 0.0201794, 0.1651629, 0.3342258, 0.0947961, 0.2129788, 0.3555228, 0.1730396, -0.0914999, 0.4284576, 0.2704719, 0.2943586, 0.0015351, -0.3291211, 0.1215707, 0.0342821, -0.0664538, -0.1971930, 0.4528965, -0.3182024, 0.3346408, -0.2854656, 0.0309860, -0.5463350, -0.1429973, 0.2025247, 0.0746842, -0.3311167, -0.4558136, 0.0288401, 0.3951141, -0.3392123, 0.2185999, 0.0428684, 0.0974517, -0.3403295, -0.4212410, -0.4220794, 0.2047186, -0.2699506, 0.1674102, -0.1770208, 0.1195213, 0.3999841, -0.3960724, -0.1582690, -0.1408373, 0.0960631, 0.1473687, -0.3702956, 0.4726179, -0.2719959, 0.4673526, -0.3237785, -0.3716732, -0.0052309, 0.2637343, -0.3387418, -0.3939472, -0.2211395, 0.2630571, 0.3802657, -0.1770647, -0.1870892, 0.3746475, 0.2696900, -0.2547214, 0.3603647, -0.4072596, -0.0730006, -0.1207916, -0.5288847, 0.1014999, 0.0178177, -0.0328821, -0.3747364, 0.2361013, -0.3909068, -0.1109656, 0.3680417, -0.2539954, -0.0442225, -0.1734858, -0.2868885, 0.2168265, -0.3920368, -0.0152973, -0.1313417, 0.2099549, 0.0978606, 0.3654632, -0.2711256, -0.1044730, 0.3095602, 0.4850884, 0.3565044, -0.0977903, -0.2919712, -0.1758473, 0.0247118, -0.3939772, 0.1692138, -0.2351305, 0.1956993, 0.3531455, 0.2042553, 0.2699747, -0.4340701, 0.4232565, -0.3072344, 0.0679570, -0.0894730, -0.1376309, -0.1458627, -0.2645653, -0.2640358, -0.4101425, -0.0605315, -0.0212811, -0.3749790, -0.3288324, -0.1330625, 0.2972791, -0.2124191, 0.0482602, 0.0150424, -0.0523796, -0.4892033, 0.1784578, -0.0980771, 0.3632519, -0.4364666, 0.1463626, 0.4736799, 0.3098965, -0.2928884, -0.2052001, -0.3039800, -0.2429973, 0.1553105, -0.4686359, 0.0912458, 0.4802309, -0.0341225, -0.1827093, -0.2597342, 0.0149481, 0.2565938, -0.3777081, 0.4359430, -0.2828808, 0.2897457, -0.1020609, 0.0935940, -0.3319617, -0.4157825, -0.0635163, 0.0672510, 0.3046909, -0.2464090, 0.2657700, 0.3253381, -0.3578631, -0.0039926, -0.1175652, 0.0820458, -0.0184750, 0.1896604, 0.2827891, -0.0589866, 0.4429359, 0.4495775, 0.3840128, 0.0575050, -0.0308796, 0.3176729, 0.3370682, -0.0570970, 0.3978247, 0.3043009, -0.3425756, -0.3325112, -0.2570293, -0.2103262, 0.0712369, -0.0080251, 0.3411837, 0.5183269, 0.3897322, 0.3434378, 0.3817700, 0.3379840, -0.4370825, 0.3658805, -0.3399233, 0.4649256, 0.0644645, -0.0422209, 0.0451506, -0.1123916, 0.1629568, -0.2855512, -0.2791716, 0.3757195, -0.3696498, 0.2378279, 0.0652136, 0.4463257, -0.0453287, 0.4285011, 0.3280350, -0.2281754, 0.1068815, 0.4959634, -0.2918110, 0.1205897, -0.2908092, -0.3740287, 0.4166573, 0.4181832, -0.4917445, -0.4985098, -0.4199988, -0.0535594, 0.3920376, -0.1679264, -0.4341486, 0.0713637, -0.0965110, -0.0149385, -0.1550281, -0.0282592, 0.1763914, -0.2939752, 0.1191959, 0.3276099, -0.1144252, 0.2177926, -0.4360010, -0.4519414, -0.0398500, -0.3152633, 0.0701356, 0.1822381, -0.1363083, 0.4626969, -0.1935301, -0.2170074, -0.3670925, 0.4449048, 0.1196297, -0.2482333, -0.4441645, 0.1948990, -0.4576107, 0.4216107, 0.0842951, -0.2002690, 0.2877964, -0.1974520, -0.0303143, 0.3324547, -0.0053239, 0.4322183, 0.4431008, 0.4337754, -0.0096863, -0.1415928, 0.2174920, -0.4779724, 0.4800231, 0.3815340, -0.1670678, 0.1643768, -0.0627783, -0.3092806, 0.1987845, -0.1572619, 0.4323908, -0.4534404, -0.1619073, 0.0350730, 0.1142575, 0.1426800, 0.2325264, -0.0394417, 0.1390468, 0.0298650, 0.3597033, -0.2886327, -0.4931748, -0.2450263, -0.0048041, 0.1148557, -0.2911644, 0.2321941, 0.0869480, -0.4858501, -0.2754229, -0.3471428, -0.4361494, -0.3179826, 0.3181472, -0.0240579, -0.1851624, -0.3574701, -0.3530955, 0.4608273, -0.5265546, 0.0654977, -0.0274089, 0.1321971, 0.4014351, 0.1838155, -0.1264952, -0.2193281, 0.1178190, -0.3118475, -0.4294671, 0.5298823, 0.2551577, 0.0712310, 0.2800434, 0.2607321, 0.1901157, -0.1830588, 0.3338093, -0.1935612, -0.2989924, 0.4255374, -0.4030837, 0.2355965, 0.3850557, -0.2995681, -0.1221096, 0.1074671, 0.2805134, 0.4679721, 0.0658894, 0.0054060, 0.4598618, 0.1988178, 0.1030092, -0.2484533, 0.4383093, 0.4706231, -0.4284964, -0.0850249, 0.3530746, 0.1716909, 0.3271607, -0.2330721, -0.3546933, -0.0452006, 0.1201818, 0.3444144, 0.5150533, 0.4810396, 0.4575203, -0.3665586, -0.4922858, -0.0967734, -0.2433519, -0.4126589, 0.3956203, 0.5105069, -0.0635915, 0.3300888, -0.4309842, -0.2450860, -0.0562206, -0.1091710, 0.4418294, -0.1272220, 0.1065786, -0.4354708, -0.2584206, -0.3092731, 0.4555362, -0.0234382, -0.1116056, -0.0341811, -0.4005536, -0.0702484, -0.2924550, -0.1497524, -0.0085553, -0.2506469, 0.0755798, 0.1746023, -0.2756473, -0.0577318, 0.3052723, -0.2497836, -0.2583230, -0.2521384, 0.5675716, -0.1772471, 0.3108189, -0.2707237, -0.3707571, -0.4531834, -0.1151676, 0.5056092, -0.0969278, -0.2318329, 0.2242805, -0.2579025, 0.0183420, 0.3947982, 0.0659494, 0.2792972, 0.4944251, 0.1417167, -0.3052067, 0.3350051, 0.5054779, -0.5110543, 0.1247613, 0.1512895, 0.4533325, -0.2112670, 0.3300794, -0.0884184, -0.0337426, -0.3734969, 0.3321907, -0.2891388, -0.4004549, 0.2968281, 0.2175573, 0.1528844, 0.2325777, -0.1030239, -0.5299008, 0.3595512, 0.3440176, -0.2002877, -0.0071464, 0.0096493, 0.0909195, 0.4890927, -0.4228085, -0.1845151, -0.1544348, -0.4754246, -0.0899813, -0.5448685, -0.3556703, 0.2563646, -0.2535013, 0.4464929, 0.4282639, 0.4037779, -0.3267196, -0.2976163, -0.3769614, 0.4564233, -0.3115278, -0.3582497, 0.3211285, -0.0416410, -0.2192848, 0.4970180, 0.3403277, 0.4920117, 0.4336686, -0.2183602, -0.4008193, -0.2800237, 0.3501143, 0.1369147, -0.3742760, 0.1231692, -0.1017732, 0.0261169, 0.1824729, -0.1488560, -0.3212517, -0.2936254, -0.3757330, -0.3250880, 0.2669736, 0.4216190, 0.4662766, 0.3703449, -0.3649362, -0.4859557, 0.0202139, -0.1644914, 0.2943965, 0.4980808, -0.0678688, -0.4369628, 0.0941086, 0.0543673, -0.4762907, 0.2149010, -0.3793529, -0.5608884, -0.3779666, -0.1048036, 0.4761606, -0.0672746, 0.0239180, -0.4308800, 0.3274706, 0.0102673, -0.3457165, -0.3158621, -0.4260872, 0.0220236, 0.3374438, -0.2875534, -0.2294163, -0.1116516, 0.0769527, -0.1435931, -0.2062790, 0.1534467, -0.2319663, 0.1531375, -0.1416172, 0.3219080, -0.0402107, 0.2512570, 0.0013454, -0.1225148, 0.2055917, -0.1670481, 0.0328886, 0.0516311, 0.3629317, 0.2715790, 0.2737000, 0.2724501, 0.2283039, -0.4641795, 0.0825137, 0.2563995, -0.1893397, 0.3535836, -0.1299795, 0.3379460, 0.4801716, 0.3010835, -0.3127952, 0.2492510, 0.4575205, 0.4566805, -0.1302468, -0.2300462, -0.3563425, 0.4628024, 0.0567015, 0.3575222, 0.0944152, 0.1890327, -0.1622101, 0.1401424, 0.0671741, -0.1693652, -0.1867492, -0.2771773, -0.2527317, 0.2342254, 0.3170631, -0.3975010, 0.3597236, 0.2087288, 0.0049277, 0.0336980, 0.1084382, -0.0296111, 0.3968566, 0.3345439, -0.4648232, -0.3323134, -0.3358406, 0.3551828, 0.0105043, -0.3791580, 0.0819063, -0.1083334, 0.0572686, -0.0411019, 0.4385375, -0.4720607, -0.4486775, 0.3385151, -0.2987204, -0.1335255, 0.3662291, -0.0306082, 0.1610837, -0.2133844, -0.4382147, -0.0413597, -0.2975207, 0.2759525, -0.3001998, 0.0371715, 0.2242234, -0.1904754, -0.2320727, 0.1722065, -0.4069346, -0.3484720, 0.4175814, -0.1153410, 0.1139415, 0.4993492, -0.0588081, -0.2062190, 0.3402311, -0.4976661, -0.2997793, 0.2077522, -0.3447104, -0.1346787, -0.4351503, -0.0384521, -0.3628073, 0.3913150, 0.0477976, 0.1513477, 0.1510210, -0.2330910, -0.0094386, 0.2519704, -0.0917772, 0.2079221, 0.2329889, 0.0033170, 0.2028586, 0.3582250, -0.3807110, 0.4874358, -0.4384604, -0.4932706, 0.0465569, 0.0727227, 0.3904409, -0.3307182, -0.5276424, 0.3598047, 0.1350470, 0.2958653, -0.3796886, 0.1130042, 0.0392102, 0.1688720, -0.2149052, 0.0478198, -0.0546801, -0.2308524, 0.1271775, -0.2723513, -0.1181826, 0.2996690, -0.0438176, -0.2745229, -0.2464585, 0.0836536, 0.2153749, -0.0639972, -0.2640115, -0.0884731, -0.3780750, -0.2974163, 0.2330788, 0.2610737, -0.0040825, 0.4844274, -0.1288016, -0.0753189, -0.3548940, 0.3914522, -0.1616229, -0.2838349, -0.3589484, 0.3407339, -0.0159747, -0.5213790, 0.0887833, -0.4707120, 0.2130039, 0.0689002, -0.4009096, 0.4014063, 0.2416372, 0.2443466, 0.1551939, -0.0891934, 0.0959173, -0.0771697, 0.3599744, 0.3024682, 0.2959545, -0.3666809, 0.3732520, -0.2193847, 0.2131703, -0.0457874, 0.2552663, 0.3200005, 0.3356428, 0.3076763, 0.1889191, -0.2536691, -0.1619790, -0.0000477, 0.3642207, -0.0818246, -0.0974706, 0.2903778, 0.1757904, -0.2945612, -0.2997406, 0.0186890, 0.1023015, 0.2936046, 0.3211097, 0.3482786, -0.3188601, 0.4137389, -0.4652897, 0.1640874, 0.2949416, 0.2960900, -0.5372134, -0.3187728, -0.0952574, 0.4935479, 0.1950654, -0.1298167, 0.0969997, 0.2367708, -0.3907936, 0.0187578, 0.3722022, -0.4909291, 0.4247406, -0.4500915, 0.0462641, -0.0259126, -0.2610947, 0.3182926, -0.1443466, 0.0633854, -0.4069560, 0.4048087, -0.2476625, 0.2569438, -0.1099287, -0.3543541, 0.2203395, 0.1071620, 0.1645624, 0.1820715, 0.2453156, 0.2035121, -0.4253819, -0.2751079, 0.4436184, 0.1103312, -0.1668214, -0.1451440, 0.4277802, -0.0217417, -0.4688505, 0.4396498, -0.3840727, -0.1221969, 0.0230495, 0.1372446, -0.0207777, 0.1251219, -0.3213681, 0.0899727, 0.0887700, -0.2389626, 0.1507553, -0.0206368, 0.2731740, 0.0963751, 0.4520937, 0.4975026, -0.0883568, -0.2228902, 0.3587819, 0.5946766, 0.3716265, 0.1499087, 0.1709853, -0.3075309, -0.0612126, 0.2271196, -0.3121638, -0.2554028, -0.1555710, -0.4021310, 0.3791623, 0.4766051, 0.3018753, -0.4828652, 0.4015545, -0.0662250, 0.3506491, 0.1686776, 0.3594744, 0.3606018, 0.1931295, -0.2028259, 0.2086335, 0.2840480, 0.3258643, -0.0856977, -0.3326932, -0.1381289, -0.1616728, -0.0303900, -0.3529442, -0.2918147, 0.3016749, 0.0441676, 0.2313396, -0.2756386, 0.0936105, 0.1737175, -0.3350814, 0.1476963, -0.2822820, -0.1600343, -0.0756235, -0.2185695, 0.2541539, 0.5160606, 0.0350609, -0.2520405, 0.4078459, -0.1133083, -0.1402635, 0.2107041, 0.3217777, 0.4091505, 0.1599591, -0.2674859, 0.4903747, -0.0062061, 0.1274666, -0.1538287, -0.1853627, -0.2736669, 0.0854823, 0.3104441, -0.1483199, 0.2660875, 0.0763492, -0.5132142, -0.5098882, -0.2997441, 0.2938137, 0.2829309, -0.0989908, 0.1910274, -0.0555475, -0.2468017, -0.0387032, 0.0713395, -0.3469892, 0.3047985, -0.5074334, -0.0902484, -0.0709039, -0.2755948, 0.4152508, -0.3363475, -0.4372959, -0.4825333, 0.4394771, 0.2424476, -0.3667942, -0.4476927, 0.3154254, 0.1704632, -0.3592929, -0.2845089, -0.4549201, 0.0473331, 0.1746412, -0.3138427, -0.0765619, 0.2334112, -0.2987596, -0.4920014, 0.0448822, -0.1672083, 0.2642460, -0.0985429, -0.3787609, 0.2740740, -0.0356672, 0.1930384, -0.0534814, -0.1876347, -0.4044818, -0.1142875, -0.3461369, -0.4217191, -0.3807120, -0.4042911, -0.0204250, 0.5628115, 0.2797066, -0.0385175, -0.2053906, 0.3068295, -0.4392660, -0.5597623, -0.3362058, 0.0844211, 0.0107784, -0.3367558, 0.1177751, 0.2433979, 0.2816366, 0.1418158, 0.2168621, -0.5169981, -0.0139346, 0.0687909, -0.5142597, 0.1594023, 0.3598302, 0.0462258, 0.0829276, -0.3206779, 0.2566142, 0.1292666, -0.1791129, 0.3857052, -0.5149731, -0.1027725, 0.4527630, 0.2787956, 0.2168919, -0.2291826, 0.1495085, -0.1701120, 0.4284667, -0.3632126, -0.3639000, -0.1823475, -0.1583603, -0.2178770, 0.0407364, -0.2202179, -0.0083808, -0.3933806, -0.1332471, -0.1587356, -0.0741764, -0.2432496, -0.0878074, -0.0261792, -0.3482043, -0.3168426, -0.0647304, 0.3799511, 0.2223426, -0.3380233, -0.1333055, 0.3103662, 0.4652632, 0.2847899, -0.4957235, -0.4574240, 0.3479112, -0.2606631, -0.2216923, -0.4981842, 0.3047754, -0.2179656, 0.0674143, 0.2550555, -0.0038499, 0.3775197, -0.2638383, 0.2786425, -0.1517168, -0.4611892, 0.3935216, -0.3482449, 0.1593807, 0.3058361, -0.4593869, 0.1632781, 0.2443102, 0.0614024, -0.0133663, 0.0585427, 0.1244992, 0.1441512, -0.4079765, 0.2036756, -0.4753920, -0.1402048, 0.0705468, 0.2840246, -0.4912271, 0.2152390, 0.2167447, -0.0866376, 0.1964738, 0.2694072, -0.4569430, 0.1795975, 0.0658652, -0.0371243, 0.1616506, 0.4839288, 0.4728691, -0.5679477, 0.1808769, 0.1163396, 0.0630650, 0.2994008, 0.1277245, 0.4465847, -0.2070811, 0.2846649, 0.1525175, 0.0979787, -0.2802799, 0.1199707, -0.0740186, 0.2152972, 0.4137983, -0.0982644, 0.2351549, 0.3132830, 0.4842584, -0.1460401, 0.1575805, 0.2175679, 0.4028293, 0.3918328, -0.3034973, -0.1767352, -0.4418382, 0.2499530, -0.1136815, 0.1953467, 0.2870310, -0.3628028, -0.2730260, -0.2997572, 0.3347935, 0.2847416, -0.3736262, 0.0473325, -0.2557781, -0.3218367, -0.1442305, -0.2685401, 0.2886019, -0.2570198, 0.4052208, -0.0982365, 0.1318330, 0.4710806, 0.1762576, -0.0492949, -0.4776210, -0.1542443, 0.4485083, 0.4267660, -0.1434512, 0.3975255, -0.4927517, 0.4495707, 0.3434783, -0.1959753, 0.0914886, 0.4227748, -0.2859224, -0.1491360, -0.0151234, 0.2766728, -0.3636804, 0.0303161, 0.4484463, -0.0017059, 0.1685701, -0.2864152, 0.4001365, 0.2945803, 0.0069005, 0.0125281, 0.3244803, 0.1022444, 0.3264940, -0.2758654, 0.2940837, 0.3417753, 0.1789044, 0.0079148, 0.0683813, 0.1554611, 0.4890406, -0.0362376, 0.2911447, 0.3029505, -0.2557273, -0.2125671, -0.2317022, 0.0234649, 0.2689759, -0.2017058, 0.1591786, -0.3162732, 0.3623253, 0.0599099, 0.3686630, 0.1043266, -0.0842108, -0.3942235, -0.1939985, -0.4932977, -0.1414588, -0.4601631, -0.4848838, 0.2324958, -0.0264752, 0.0948192, -0.3546301, 0.4039265, 0.5016273, -0.2031186, 0.3329982, 0.1298041, 0.0020316, -0.2397886, -0.3435828, 0.0474792, 0.5133084, 0.2335290, 0.4101388, 0.2244388, 0.0038253, 0.3161323, 0.4409453, -0.0332896, 0.1484628, 0.0357877, -0.4414779, -0.3334838, -0.0246851, -0.4702437, 0.1458909, 0.3804996, -0.0240273, 0.3934750, -0.2853003, 0.2337892, 0.4080791, 0.0664963, 0.2671456, 0.0610858, 0.0188966, -0.3776261, 0.0723004, 0.2271011, -0.4561358, 0.3999577, -0.0670551, 0.4224267, -0.3613501, 0.3743457, 0.1249414, -0.0269197, 0.1545230, 0.0137275, 0.5163734, -0.0573811, 0.5211954, -0.2003271, 0.1997130, -0.3491278, -0.2501964, 0.0043357, -0.1638022, -0.1887664, -0.3896217, 0.3978925, -0.2895138, 0.2351362, -0.1390075, 0.1051976, -0.1447362, -0.2111521, -0.3457170, 0.3532121, -0.1923024, 0.4532816, -0.4213284, -0.3685174, 0.0481564, 0.4861865, 0.0976245, -0.4403757, -0.0467805, 0.3719143, 0.0516124, 0.1707122, 0.2640682, 0.3902807, 0.3200074, -0.1443202, 0.1226240, -0.3532296, 0.2874670, 0.0548387, 0.2528572, -0.1319674, 0.2452961, 0.0470572, 0.0981802, -0.4664681, 0.3612352, 0.1499100, -0.1861509, -0.4406163, -0.3252592, 0.2807367, -0.0057989, -0.3164193, -0.3812775, -0.3182785, -0.0614418, -0.3709440, -0.1034241, 0.3368831, 0.1090656, -0.3798528, -0.0284899, 0.4185159, 0.4133310, -0.2119100, -0.3691574, -0.2646161, 0.1338602, 0.0187326, -0.2762764, 0.0384229, -0.4597456, -0.3510725, 0.4845947, 0.0617188, 0.1923310, 0.3703023, 0.4163310, -0.4004261, -0.3764876, 0.2586852, -0.4335169, -0.0936467, -0.4810477, -0.4171820, 0.4435991, 0.5111685, -0.4348692, -0.2804124, 0.0143780, -0.0064246, 0.3180919, 0.3031865, 0.3769695, -0.3547850, -0.2170286, 0.3453374, -0.2580654, -0.0865119, 0.2561685, -0.0596422, -0.1742581, -0.0424546, -0.4162873, -0.2676294, 0.5069437, 0.3814532, 0.1668873, -0.0972976, 0.0093528, 0.0369208, -0.2341772, -0.4205782, 0.1290676, 0.2438329, -0.2624128, 0.0363831, 0.2933587, 0.3048176, 0.0861741, 0.4251579, -0.2383107, -0.0583773, 0.2886795, 0.1882812, 0.3651411, -0.1972297, -0.2458771, 0.3912845, 0.1016203, 0.2156095, 0.1339632, 0.1299737, -0.2585535, -0.1357615, 0.1150878, -0.0506916, 0.1545472, -0.1375074, 0.3699259, 0.1182093, 0.1103700, 0.4043091, -0.2773163, 0.5101675, -0.2921635, 0.0901796, 0.2927819, -0.0220966, -0.1855713, -0.3984285, -0.0217314, 0.4540714, -0.4433527, 0.1508125, -0.0908502, 0.1209247, 0.4265899, -0.3062882, -0.4042698, -0.4187644, -0.3897045, -0.1583479, -0.1797525, -0.3083856, -0.2117727, 0.3532526, -0.2048477, 0.3352846, -0.3132650, 0.0820914, -0.2356387, 0.3368669, 0.2852190, 0.2549140, -0.1614703, 0.3087901, -0.2255315, 0.0325510, -0.2033705, -0.3225971, 0.2874078, 0.5460473, 0.1510852, 0.3094393, 0.3163360, 0.3048360, -0.3564684, 0.2991906, -0.3280440, -0.1989446, -0.3949298, 0.4240275, 0.4015504, 0.0892439, -0.0296613, 0.0404988, 0.4751714, 0.3067837, -0.2084736, -0.2188310, -0.2871095, 0.2037507, -0.4713692, -0.4589407, 0.3556512, -0.1881540, 0.3861657, 0.0157290, 0.0370448, -0.4088677, 0.3764751, -0.4822373, -0.3807159, 0.0807866, 0.3774129, -0.5213718, 0.2423212, 0.2781957, -0.1926716, 0.3872399, -0.3911106, 0.2154081, -0.3051819, 0.1082945, -0.2409618, 0.1510789, -0.0703339, -0.4388930, 0.3950957, -0.2267700, -0.0168541, 0.0009280, 0.1578341, -0.4538461, -0.3783371, -0.3300399, -0.1786152, 0.3691370, 0.0034095, 0.3732824, -0.2886713, 0.0615745, -0.2766502, -0.2293233, 0.1722341, 0.2763267, 0.1299909, 0.0820785, -0.0464872, 0.4308967, -0.2815963, 0.4164435, 0.3717312, -0.3134109, 0.0138215, -0.2835408, 0.3565466, 0.2920365, 0.3642423, 0.4938793, -0.2436053, 0.2059348, 0.3540387, 0.2953521, -0.0435283, 0.0965339, 0.1594428, 0.2718157, -0.1167507, -0.3382952, -0.0200392, -0.4806300, -0.2900812, -0.0101613, -0.4516155, -0.3290831, 0.3219992, -0.0294392, -0.3165844, -0.1680477, -0.0754556, 0.3992870, -0.4520465, -0.3483384, -0.2899903, -0.0056659, -0.0067999, -0.1445332, 0.1577052, 0.1226437, 0.0210004, 0.1322919, -0.2859025, 0.3648084, -0.2889647, 0.0648951, -0.4212073, -0.3102879, 0.3885079, -0.4854810, 0.2762184, -0.0591886, -0.4791965, 0.4170310, 0.4933594, -0.3557660, 0.1990193, -0.4890861, 0.0876047, -0.3262864, 0.0521925, 0.1191561, -0.3995672, -0.1104750, 0.3342659, -0.4364313, -0.0646896, 0.2138332, 0.4500339, -0.0520950, -0.2242482, -0.3059636, -0.3013185, -0.0801958, -0.0832337, -0.3081832, -0.2576613, 0.1679832, 0.4680690, -0.0736233, -0.0888870, 0.0908407, 0.0498113, 0.4217178, 0.1945540, -0.0138300, -0.5063134, 0.1909062, 0.0450040, -0.2043571, -0.1340494, 0.0071070, -0.0526671, -0.0043763, -0.1717533, -0.1832477, 0.3771431, -0.0607857, -0.2795474, 0.1858653, 0.2022499, -0.2817331, 0.3419000, 0.4683276, -0.3956840, -0.2852022, 0.0179846, 0.4118460, 0.1410005, 0.2789677, 0.2426578, -0.2619464, -0.1613174, 0.1392852, 0.5281343, 0.1281453, 0.4587446, -0.1458922, -0.4074319, -0.1130289, 0.1204908, -0.1371696, 0.1904898, -0.0753687, -0.0548346, -0.3867624, -0.1502180, 0.4290635, 0.1560186, 0.2189516, 0.3266168, 0.0107218, 0.3189304, -0.2566835, 0.2338016, 0.2962039, -0.3422482, 0.1894823, 0.2267339, -0.1569279, 0.0631028, -0.4271836, 0.3487939, 0.4511995, 0.4427030, 0.4014705, -0.1267282, -0.1050981, -0.1736824, 0.4273079, -0.2783832, -0.1841409, 0.3663833, -0.1254828, -0.4253212, -0.0368814, 0.0408219, -0.4020764, -0.3170867, 0.5122802, 0.4272228, -0.1417090, -0.4134323, -0.0835028, -0.3215231, 0.0743047, -0.0945874, 0.1561011, 0.0344709, 0.0336828, 0.3153255, -0.0928972, -0.3486724, -0.4279136, 0.1710220, -0.2090703, -0.3813715, 0.2432395, 0.2953141, -0.4093345, -0.4960021, -0.4086775, -0.0038980, -0.2842950, 0.4470794, -0.1014161, 0.0091093, 0.3212883, 0.2381000, -0.2982216, 0.1542787, 0.0593056, 0.1658042, -0.3229275, -0.3271699, -0.1115752, 0.1260722, -0.2051653, -0.2707313, -0.0158444, -0.0019974, -0.3515041, -0.0203060, -0.1641363, -0.3252445, 0.0236369, 0.0362984, -0.2698626, 0.5424652, -0.1938449, 0.0500049, 0.1432840, 0.5274039, -0.4818752, 0.1574092, 0.5307395, 0.3462105, -0.0689040, 0.3042274, 0.3083217, -0.0907596, 0.1774232, -0.3509956, 0.4095614, -0.0925681, -0.4031683, 0.5129623, -0.2385898, 0.3728643, -0.3075630, -0.3740175, -0.1685221, 0.1603232, 0.4109746, 0.2279125, 0.3914953, 0.0328778, 0.0892636, -0.4147351, 0.4656046, -0.4128265, -0.4016663, -0.0164262, -0.1189891, -0.2851073, 0.0551954, 0.2271567, -0.2134300, 0.3499714, 0.5131238, -0.0107047, -0.4830606, 0.2699985, -0.2831961, 0.1234502, -0.1847292, -0.2769895, -0.1627350, -0.4062160, -0.1342789, -0.3829260, -0.1801038, 0.1070316, 0.2727594, -0.0828576, 0.0457046, 0.0767592, -0.3315911, 0.1998806, -0.3124209, -0.0569865, 0.0501518, -0.2876730, -0.2462707, 0.2249343, 0.1182816, 0.3221634, -0.3842511, 0.4824488, -0.2502607, -0.4132933, -0.0013042, -0.2133814, 0.4939387, 0.1761301, -0.2821429, -0.0120701, 0.2736028, -0.2081722, -0.0343078, -0.4839450, 0.2664524, -0.3429254, -0.0883972, 0.5074013, -0.4914816, -0.5192075, 0.2112178, -0.3533139, 0.0620841, -0.0240411, 0.2678648, 0.4559059, 0.3719065, 0.3691398, -0.1759255, -0.0896925, -0.0437538, -0.2806014, 0.0197599, 0.2785020, 0.0556603, 0.0474606, -0.3178591, 0.0721162, 0.3417556, -0.3741570, 0.0850507, -0.3061526, -0.4508377, -0.0801805, 0.3987013, 0.0231771, -0.0272247, -0.3002697, -0.4971249, -0.1463114, 0.0549064, -0.4749237, 0.2472010, -0.3390398, -0.1026697, -0.3800294, -0.5103905, 0.4313149, -0.1924376, -0.2350846, -0.5102581, 0.1941011, 0.2276832, -0.2989646, -0.1622648, 0.0636522, -0.1342610, 0.3895012, 0.3281507, 0.3813947, -0.0166032, 0.2873914, 0.1719739, 0.0398149, 0.4414469, -0.2545029, -0.3155528, 0.1108970, -0.3453079, -0.2312924, -0.0863153, 0.1031827, 0.3704054, -0.4475833, 0.0516683, -0.1391436, -0.2003108, -0.4310798, -0.2817864, 0.1896427, -0.1003420, -0.2960357, -0.2249691, 0.4346701, -0.0358471, -0.1758173, -0.3723931, -0.5057421, 0.0303153, 0.2769442, -0.4607399, -0.2749149, 0.3614059, 0.4318503, -0.2612463, 0.0347705, 0.4196947, 0.5592992, -0.0630389, 0.3053037, -0.4554237, -0.3989350, 0.0416895, 0.2308127, -0.5134507, -0.3012627, 0.0147580, -0.4630136, -0.0506021, -0.1225460, -0.3653426, -0.4667667, -0.4603567, 0.0662608, 0.2431298, 0.1331856, 0.0723884, -0.3516522, 0.0603117, -0.0031174, 0.1802547, -0.4682009, -0.3297619, 0.3370200, -0.0256085, -0.3195949, 0.4175369, 0.1899639, 0.0049785, -0.2690915, -0.0175818, 0.0974603, 0.5116746, -0.3870940, -0.3344972, 0.4059662, -0.3807139, 0.1563390, 0.2397132, 0.0140658, 0.4667593, 0.1793661, 0.3526101, -0.2193032, -0.2136696, 0.4763622, 0.1280016, 0.3792365, 0.3264565, 0.1375455, 0.1149966, -0.1563286, 0.5257660, 0.1565203, -0.1021979, 0.4449179, 0.0316647, -0.1848272, 0.0861539, -0.5089431, -0.2868730, -0.4029023, 0.2155161, -0.0361450, -0.1982390, 0.0057787, 0.2684313, 0.0606636, -0.0412171, 0.0541434, 0.3080441, -0.4648065, 0.0341973, 0.2490742, -0.2533165, -0.3046484, -0.4081359, -0.4151094, 0.0244375, -0.4198634, -0.0021067, 0.3804187, -0.4283478, 0.1477351, 0.3796476, -0.4551435, -0.0676483, 0.3675133, -0.2728731, 0.1242102, -0.1415487, -0.0114000, 0.4654370, 0.2912111, -0.3380703, -0.1121344, 0.4401285, 0.4462633, 0.0568101, 0.2945482, -0.3596575, -0.3767388, -0.0242708, -0.2330638, 0.2492013, 0.0774702, 0.1871917, -0.0163199, -0.2687665, -0.3310756, 0.0880698, 0.2235535, -0.3371201, -0.1194597, 0.1286330, 0.0472123, -0.3361021, -0.4041849, -0.1437245, 0.3409720, 0.4276388, -0.1804279, -0.2927430, -0.0894656, -0.3165280, 0.1099306, -0.1998003, 0.1866402, -0.4005830, -0.1469739, 0.3223980, 0.2760921, -0.1374636, 0.0644642, -0.5153294, -0.4704095, -0.0724331, 0.1492733, -0.3990385, 0.3795680, 0.1738524, -0.0423457, -0.1101720, 0.4536557, -0.3196973, 0.0652598, -0.0634315, 0.4466146, 0.2388946, -0.4206567, 0.1015104, 0.2237118, -0.3907884, -0.2904325, -0.3213127, 0.3053911, -0.0035790, -0.0947879, 0.3888870, 0.4206538, 0.1079048, 0.0754292, -0.0333864, 0.3445824, -0.3990698, 0.3163317, 0.4385212, -0.5145998, 0.2478198, -0.0301491, -0.2472102, 0.3827907, 0.0144279, -0.3060376, 0.3226167, -0.4137467, -0.0186129, 0.0109732, 0.2004175, -0.0404359, 0.4445577, 0.2552358, 0.1586474, 0.1446855, -0.2489529, 0.3246096, -0.2631368, -0.1914558, 0.1228493, 0.1503805, 0.4370005, -0.3269599, -0.2393423, 0.2908427, 0.0551381, 0.1328067, -0.1047910, -0.2259064, 0.2839801, -0.1575962, 0.3067949, -0.4250670, 0.0782523, 0.3443090, -0.4106224, -0.3661774, -0.2633432, 0.1238649, -0.3445617, -0.3764483, -0.3859788, 0.0059033, -0.2863353, 0.1267008, 0.1232930, 0.3531980, 0.0347705, -0.2207067, -0.1773146, 0.1540144, 0.3508096, 0.1892951, -0.2903740, -0.3158999, -0.3096007, 0.0814716, -0.0718923, -0.1705376, 0.4660280, 0.1719098, 